784 100
topping -0.18373616 0.03389096 0.07276801 0.18201768 0.20040263 0.19451603 -0.18999323 -0.17212202 -0.56128615 -0.53167623 -0.017725768 0.15999636 0.43182975 0.16397226 0.25496545 0.069306865 -0.27133 -0.55852854 0.37306756 0.25023347 0.0786578 -0.3863401 0.4878839 0.30211544 0.7738288 0.09670153 0.26627436 -0.1977719 -0.2662209 -0.10988098 -0.05310389 -0.08396596 -0.5604305 -0.043234702 0.6574303 -0.13438645 0.6929857 -0.6562555 -0.2773264 0.45459712 -0.12109876 -0.124350056 0.048871383 -0.011865571 -0.042097833 -0.38518345 0.34604943 -0.08509692 0.26552284 -0.0117463535 0.042568035 -0.038482957 0.038487222 0.004937966 0.2564474 -0.27442944 -0.1726716 -0.37998536 0.41892844 0.65522194 0.54768986 -0.03877999 -0.3234986 0.73863673 -0.19499557 0.05250365 -0.22959563 -0.09347556 -0.24311963 -0.19763881 0.048416153 -0.17739744 -0.38714653 -0.12044491 -0.115872346 0.15998423 0.08585925 -0.16981246 -0.1861144 -0.14233449 -0.10832811 0.16225868 -0.48747277 0.005355127 0.43912545 -0.014885728 -0.5374366 -0.49534523 0.05358997 -0.09231547 -0.023755513 0.825949 -0.18208484 -0.033445157 0.3070034 0.469905 -0.21257111 -0.01873242 -0.05067111 0.38342384
of -0.04451343 0.06992073 0.28016633 0.26387995 0.22251965 0.5488199 -0.19263817 0.0030255339 -0.12969163 -0.204471 0.20680891 0.19274092 0.028127542 0.36311767 0.35131383 0.15984356 -0.414857 -0.1566446 0.2067022 -0.09599936 -0.11164352 0.027486496 0.07287681 0.19928202 0.14332852 -0.07381125 -0.004341608 -0.08693062 -0.14129207 -0.04457854 -0.014151862 -0.004729767 -0.21439208 0.1919254 0.2728851 0.14067064 0.75358236 -0.5866476 -0.6305225 0.3689757 0.13892221 0.013246008 -0.0925018 -0.26836482 0.16929398 -0.33331683 0.09263521 -0.035470154 0.18409199 0.16505843 0.14247587 -0.06098831 -0.13852078 0.12961294 0.25141364 -0.169301 -0.12822513 -0.23191734 -0.31164017 0.2812927 0.7480505 0.1569311 -0.37150264 0.6693777 -0.029330406 0.043363046 -0.14306732 -0.62736166 -0.10371947 -0.6969113 -0.114814535 -0.59941226 -0.6844145 -0.14240934 0.24273853 -0.16859291 0.08647218 -0.32079008 0.031802505 -0.21302663 0.19854356 0.4146709 -0.17792869 0.31020474 -0.12381439 0.047834262 -0.7103381 -0.38159525 -0.06448678 -0.45511255 0.24608696 0.48706856 0.16205028 0.002464318 0.23801559 0.27069443 -0.035916056 0.05976007 -0.26519826 0.1568735
has -0.43160403 -0.2810425 0.2829564 0.51212174 0.37630308 0.3301565 -0.08484997 0.17741206 0.059391443 -0.06814871 0.1834952 0.25435448 0.1891837 -0.049906973 0.27123463 0.012125266 -0.23550406 -0.45859116 0.34477758 0.35099825 0.17300585 -0.28677213 0.20021829 0.030099584 0.49272898 -0.17915829 0.23607409 0.032556143 -0.2829144 0.06139736 -0.22905691 0.37499157 -0.53511417 0.2005573 0.45856574 0.17246807 0.51624024 -0.27282444 -0.33027637 0.45917413 -0.42267132 0.03555155 -0.23304808 -0.02571765 0.19115782 -0.40451702 0.33748063 -0.29635212 0.61760676 -0.13260908 -0.2498313 0.18044448 -0.06685917 -0.19693862 0.16907534 -0.3162511 -0.035537068 -0.065637924 0.34699565 0.71720886 0.27859238 -0.15752256 -0.3742994 0.8437254 -0.11795976 -0.13582946 -0.3104559 -0.84842485 0.14613035 -0.36735234 -0.22557315 -0.41074634 -0.41204053 0.0067657926 -0.12795047 -0.18523286 -0.074684516 0.27571473 -0.2822503 -0.6457403 -0.03188057 0.05437859 -0.39882508 0.020687021 0.22884722 0.1041805 -0.51500595 -0.32473972 0.2503336 -0.2654827 0.37487197 0.19180793 0.2114707 -0.11921326 0.29082656 0.282373 -0.0029790362 -0.19806935 -0.18318467 -0.09295534
subclassof -0.047427006 0.12153802 0.31643727 0.445436 0.28332174 0.14109497 0.012551759 0.054125838 -0.0297515 -0.1296119 0.023737488 0.011646548 0.17406759 0.046614684 0.44460776 0.057067398 -0.29016012 -0.22615275 0.21085098 0.13501972 0.3221237 -0.093586296 0.15207668 0.04912853 0.82044435 -0.5955469 0.033788413 -0.583771 -0.13016853 0.114277706 0.12482972 -0.13006245 -0.19531621 0.09859065 0.11218421 0.36775884 0.3412927 -0.5248583 -0.16116391 0.49010214 0.1947861 0.28022116 0.018945917 -0.1083611 0.4534712 -0.39478353 0.3899689 -0.12396209 -0.113627344 -0.08877051 0.03868249 0.1276977 -0.1632004 0.17711543 0.48883703 -0.10596384 -0.22584131 -0.13023104 -0.30676082 0.53196 0.55592436 -0.120405816 -0.2786254 0.6373986 -0.29507953 0.07096214 -0.27200902 -0.5497423 -0.09495378 -0.5778663 0.0021346684 -0.15793028 -0.48855266 -0.33531034 0.05254134 0.013713908 0.14128713 -0.20488381 -0.3640045 -0.36399463 0.246636 0.15794916 -0.29794377 -0.17282936 -0.09623896 -0.2906871 -0.5311898 0.005374699 0.20603752 -0.42263812 0.12706481 0.4164311 0.05395795 0.051135454 0.25112188 0.10736902 -0.016481929 -0.22716658 -0.07617417 -0.2661479
pizza -0.04923143 0.03200299 0.15921201 0.52758974 0.4132171 0.36031312 -0.19683272 -0.010028872 -0.38390884 -0.511282 -0.063160785 0.021723572 -0.12844695 -0.09718801 0.08315319 0.11974429 -0.039792314 -0.25627613 0.08273151 0.121369906 0.29910818 0.09670107 0.17595889 0.27772862 1.0166514 -0.05478515 0.3846501 0.11018349 -0.45911628 0.17375298 -0.4196885 -0.019596715 -0.20985727 0.1593302 0.20798297 -0.08395791 0.5778252 -0.1114653 -0.37509868 0.0504577 0.27898005 -0.044696823 -0.35666564 -0.1449909 0.51374304 0.2777079 0.22966939 0.21255931 0.2172322 -0.19617096 -0.1161456 0.10778292 0.039659787 -0.20363072 0.22257061 0.31229645 -0.2978499 -0.07765103 -0.0041477703 0.23576258 0.5249893 -0.08907948 -0.3093439 0.58662075 -0.293579 0.0493212 -0.31753156 -0.5276724 -0.011449599 -0.28855383 -0.0800975 -0.29440016 -0.65844643 -0.28962508 -0.06934387 0.09806026 0.1473401 -0.39596212 -0.10040962 -0.8117809 0.0638793 0.4833531 -0.5184869 0.15708818 0.23659581 0.07597492 -0.46655375 -0.43070894 0.26647133 -0.35914817 0.5777015 0.37376994 0.16161011 0.28472263 -0.0857394 0.5553659 -0.29203448 -0.20424752 0.1695942 0.12113353
is -0.34744853 0.10861306 0.2526263 0.623386 0.21016477 0.83678573 -0.19816707 -0.13667645 -0.07598172 -0.38585523 0.1729823 0.10358019 0.39984494 -0.020845037 0.4106867 0.062347006 0.025040338 -0.732378 0.20162985 0.1931734 -0.07698228 -0.34104925 0.33235192 0.25335127 1.2073098 -0.017249346 0.13758172 0.12026084 0.0665246 -0.0157531 -0.20015012 -0.03448268 -0.18278725 0.06631279 0.08746717 0.05250958 0.7170218 -0.5064621 -0.46380368 0.24734515 0.19051145 0.058004923 0.0612366 -0.022142285 -0.27616978 -0.9006183 -0.20394468 0.07474808 0.3465131 -0.15329686 -0.1702353 0.019926174 -0.113558955 0.01302276 0.50618297 -0.18582238 -0.33648467 -0.08993461 0.0231411 0.41725194 0.26874015 -0.021893539 -0.16254257 0.38180017 0.059179876 -0.20190811 -0.1841301 -0.36240387 0.20092382 -0.30300662 0.06786592 -0.52926034 -0.5134213 -0.061031215 -0.09582351 -0.21900825 -0.16275184 0.18031892 -0.29953822 -0.6969455 -0.15438403 0.3185864 -0.45661178 -0.19394237 0.20572773 -0.036961973 -0.50504565 -0.1639118 0.38353944 -0.24641086 0.44945246 0.4688764 -0.121607795 0.2820689 0.22876567 0.70725167 0.007984573 0.1630282 -0.03145925 0.28681657
class 0.039522626 0.2835626 0.44804084 0.026832452 0.2860512 0.022280991 -0.4319777 -0.18103103 0.3509763 -0.17863083 0.50108874 -0.069493435 0.36775714 0.21083541 0.07276504 0.3398056 -0.16036959 -0.3666971 -0.07674148 0.03680322 0.3679195 -0.1924776 0.6596654 0.18530919 1.0877963 -0.5452572 0.010490908 -0.011046582 -0.10529048 -0.003423632 0.25917244 -0.14067368 0.025580632 0.030037215 -0.1312796 0.31288412 0.41397658 -0.3458292 -0.07461823 0.59589 0.26537433 0.3245041 0.34136316 -0.07744374 0.25240797 -0.42534688 0.33337158 0.050414726 -0.091900826 0.10307071 -0.08911854 -0.105799556 -0.32010257 -0.12846057 0.3877117 0.06397323 -0.19807991 -0.040713247 -0.26279134 0.32918003 0.43651235 0.1588752 -0.49111614 0.56913906 -0.11952805 -0.04017094 -0.29368293 -0.63149977 -0.047564283 -0.6017819 -0.017786613 -0.4399772 -0.687782 -0.28132296 0.12188224 0.08404705 -0.08221 -0.0637736 -0.2525764 -0.28703147 0.037679777 0.21307166 0.14342538 0.16972163 -0.3014822 0.07359836 -0.590651 0.05154197 0.10606705 -0.35665762 0.33437976 0.7397437 -0.07233495 0.06409056 0.025298042 0.10356097 0.14349018 0.06804919 -0.072316326 -0.09602306
super 0.046872783 -0.16932859 -0.123836294 0.45887816 0.15177923 0.16157229 -0.13463305 -0.2018744 0.1577219 0.059109833 0.21166578 0.18110153 0.1468069 0.41919056 0.27954206 0.1592342 -0.040627822 0.11814323 0.14882728 0.045418095 -0.260351 0.22468384 0.6054926 -0.10907082 1.1703808 -0.52131265 0.107127376 -0.03231822 0.24474783 0.17635012 0.39261457 -0.14894427 0.1730989 0.11498891 -0.13866548 0.095348164 0.4591983 -0.42822635 -0.48579845 0.55123574 0.23022039 0.087513655 0.43686733 -0.15407495 0.16455555 -0.38407123 0.18286578 0.07698231 -0.0696076 -0.4117677 0.0795399 -0.19599488 -0.48599437 0.05516811 0.23928246 0.05707208 -0.4185855 -0.3706809 -0.23072788 0.450996 0.5233794 0.23369497 0.050276235 0.7206074 -0.106472224 0.014712966 -0.09264456 -0.4170471 -0.29653037 -0.8116061 -0.012333255 -0.27622974 -0.73039395 -0.098220445 0.050602317 0.11602498 -0.13303266 -0.03611712 -0.43197635 -0.14847903 0.27042332 0.46931857 -0.4191455 -0.09029145 -0.06251081 -0.16811807 -0.5755358 -0.041721594 0.057647146 -0.57504696 0.2863394 0.11965539 -0.0056708017 -0.088220775 0.43709925 0.20102488 0.005683151 -0.18187861 0.0728648 -0.07545619
label -0.3691291 0.12755343 0.40138122 0.3422799 0.4433341 0.25662535 -0.042607535 -0.15586808 0.1295718 0.12779365 0.20623234 0.26603603 0.08555501 0.13092078 0.54528534 0.23753892 -0.47702047 -0.100193344 0.40071648 0.23470145 0.1586415 -0.07869104 0.07132696 0.058835894 0.90146834 -0.081043474 0.011831735 -0.016007949 0.33192104 0.19727255 0.13427114 0.04430136 -0.3552869 -0.0064254035 0.18919545 0.22078413 0.52646303 -0.5350043 -0.35729587 0.3314115 0.08512537 0.0895742 0.024752323 0.047511604 0.17659488 -0.23244548 0.5157143 0.02585612 0.39423418 -0.07575511 -0.009597016 -0.029514134 -0.035525013 0.22429915 0.3086646 0.15656693 -0.3764974 -0.15932326 -0.082373746 0.7151122 0.49339086 0.11385674 -0.1904951 0.59362113 0.0799236 0.012155056 -0.040017087 -0.56043434 -0.13826767 -0.34189725 -0.009014483 -0.23901695 -0.4829891 -0.328214 -0.14783531 -0.02422283 0.0019915488 -0.28600252 -0.25781044 -0.17555302 0.16787933 0.3221999 -0.17957594 -0.0041580666 -0.025867123 0.04427373 -0.6171516 -0.16156264 -0.057633042 -0.40809935 0.20511226 0.41510853 -0.08488461 -0.06776412 0.19756168 0.23823234 0.08021038 0.07219947 -0.09851766 -0.13767934
preflabel -0.37939888 0.095705114 0.2724147 0.33081287 0.4551084 0.41408455 -0.06529584 -0.17037398 0.1478422 0.113310404 0.25103223 0.3180678 0.14654148 0.17491226 0.49070525 0.26771486 -0.3771328 -0.1986321 0.47027487 0.15501387 0.07561726 -0.040226553 0.21541019 0.0992302 0.96506906 -0.11579867 -0.009855497 -0.04425569 0.38528672 0.09191251 0.16635959 0.03288258 -0.3383413 0.025072439 0.2608029 0.13925816 0.5273903 -0.53490025 -0.33443737 0.37311593 -0.021932088 0.09054457 0.0072291293 0.052861497 0.16356845 -0.21516104 0.426407 -0.049062993 0.47726104 -0.035487685 0.0484357 -0.041644383 -0.03982482 0.20480779 0.3043851 0.11643215 -0.42511612 -0.17923875 -0.047120284 0.64988106 0.5294393 0.07514513 -0.21145156 0.6770007 0.052663106 0.07086285 -0.035266757 -0.5303548 -0.024865197 -0.32930455 -0.09181138 -0.23863402 -0.55703896 -0.3033134 -0.13947996 -0.03938701 -0.06895016 -0.13601716 -0.21321641 -0.2080844 0.14528798 0.29289588 -0.06265881 -0.02204723 0.050208114 0.043935083 -0.5848409 -0.15328671 -0.0006332717 -0.35150418 0.21877979 0.40087384 -0.019785188 0.023861472 0.21212804 0.23797694 0.12518604 0.10584373 -0.022335755 -0.030085605
http://www.w3.org/2000/01/rdf-schema#subClassOf 0.284934 0.085355416 0.11492918 0.6081253 0.41690663 0.2029939 0.19134381 0.05062378 0.050729793 0.25384828 -0.25105622 0.25463524 0.11789179 0.09210421 -0.07132749 0.066546515 -0.1390576 0.06797145 -0.060768098 -0.3004773 0.15181401 -0.15178488 0.39411837 0.36023432 0.91852266 0.030898007 -0.24763039 0.19432265 -0.026304929 -0.038097948 0.48958758 0.01750749 0.26822472 0.20420103 0.16147529 0.54625136 0.2664066 -0.9814719 -0.22262605 0.19083726 0.05522235 0.5537903 0.23186572 -0.14054602 0.20790356 0.35248762 0.32205483 -0.09204387 0.1411362 -0.06148346 -0.18232371 -0.22350158 -0.24417643 0.11653322 -0.04520704 0.29807353 -0.4884951 -0.02510911 -0.33900544 0.32525763 0.22358383 0.10415311 -0.7456461 0.1987396 -0.020571249 -0.3585482 -0.15724245 -0.6471486 -0.24637532 -0.2407716 0.054406755 -0.45856112 -0.4507136 -0.23831002 0.17890231 -0.33575287 -0.09045089 -0.035610713 -0.58768266 0.14981708 0.14727688 0.05050611 -0.032131273 0.34511942 -0.3375802 -0.020993527 0.15272322 0.2656953 -0.32433325 0.12352132 -0.33370686 0.27343908 0.026068676 -0.31653577 -0.079627275 -0.25090727 0.25409344 0.288771 -0.13866931 -0.3254982
spiciness -0.34463876 -0.05814181 0.25988007 -0.27552062 0.20826167 -0.11801558 -0.12948202 0.039224032 0.4777829 -0.36969084 0.13408644 -0.36475646 -0.054489516 -0.18601084 -0.11814407 -0.11565498 0.1661008 -0.101130776 0.56808704 0.36872053 0.65349364 -0.27940628 -0.27707124 -0.059280638 0.47308856 0.19031034 0.5141565 -0.07169529 0.21002305 0.12895858 0.24340343 0.13288334 -0.067809045 -0.027461318 0.59549695 -0.016063988 0.58470696 -0.2892633 -0.33514652 0.57036287 0.008345566 0.20633623 0.44423512 0.01796116 0.07239157 -0.11741315 0.32985306 -0.002335319 0.8047167 0.02640377 -0.22549178 -0.37893236 0.27530938 -0.061842173 0.076958664 0.22516383 -0.6186277 -0.3482934 -0.46366867 0.91648334 0.6575324 -0.06713655 -0.29710048 0.9642091 -0.049955968 -0.31412974 -0.09439146 -1.075629 -0.084671 0.057875555 -0.0023821315 -0.11366172 -0.82179064 -0.7950924 -0.34895563 -0.38588938 -0.23000605 -0.1831241 -0.20704764 -0.43328738 -0.0733357 0.3845013 -0.38352826 -0.42328084 0.1586558 -0.23710051 -0.99931264 0.12857305 0.5614154 -0.45431143 -0.027364442 0.3590207 -0.39972195 -0.036731504 0.11422701 0.46645743 -0.21130362 0.0409185 0.5082446 0.2858334
http://www.semanticweb.org/owl2vec#superClassOf 0.3146755 -0.014714166 0.18614425 0.42818356 0.4273208 0.07318178 0.07681193 -0.1571061 -0.025054641 0.29013908 -0.055757247 0.22817828 0.09419844 0.35311326 -0.2651175 0.1012135 -0.18177661 0.08799787 -0.057252333 -0.33982402 0.15236779 0.09150501 0.65476245 0.33900926 0.6579755 -0.11781084 -0.50293154 0.23954977 -0.20243955 -0.24044049 0.42302412 -0.07627914 0.48710775 0.23756163 -0.06545898 0.45255145 0.2770761 -1.2184867 -0.39413223 0.11683675 0.09786825 0.67828876 0.29661202 -0.32821673 0.19801508 0.17975616 0.2591885 -0.07096534 0.09856946 -0.2610806 -0.4267546 -0.3581821 -0.4368234 0.064809315 0.080178425 0.11195493 -0.2832162 -0.1164265 -0.23470354 0.2981167 0.36524042 0.19007325 -0.7340471 0.15554504 0.011640345 -0.3955663 -0.1991114 -0.5331826 -0.1776044 -0.69845515 0.2530482 -0.68020195 -0.44406885 -0.08839994 0.23289089 -0.3341001 0.08179926 0.2571996 -0.67363787 0.32705113 0.2815031 -0.04414515 -0.12007477 0.21302906 -0.23091887 0.058920074 0.1866422 0.0878331 -0.27313504 0.070859246 -0.30705658 0.46600857 0.006012225 -0.38410717 -0.10127713 -0.22208151 0.19867417 0.27901742 -0.29907185 -0.11938296
http://www.co-ode.org/ontologies/pizza/pizza.owl#hasTopping 0.073542446 -0.21924323 -0.018255876 0.5990243 0.28804454 0.12709461 0.06269882 -0.28562272 -0.5079169 -0.22627215 -0.3670283 0.32097906 0.2590719 0.3750371 -0.024645451 -0.3962587 0.094455205 -0.2713531 0.24040271 -0.072103366 0.06793699 -0.56669486 0.26409587 0.68585867 0.8007119 -0.055712916 -0.018458754 0.10801532 -0.5222517 -0.3825636 -0.3543233 0.098321006 -0.23078188 0.010140883 0.8881119 0.4543671 0.35416105 -0.7743841 -0.13876078 0.2351867 -0.13089232 0.041707575 -0.4737744 -0.20463121 -0.24281567 0.25971976 0.7921633 -0.073739365 0.31723723 -0.0916686 -0.34100592 0.15001115 -0.19546974 -0.0638058 -0.25808704 -0.50961936 -0.21157998 -0.771923 0.40979385 0.44531012 -0.14478897 -0.31090868 -0.5600982 -0.033184838 -0.013352798 -0.64981663 -0.5590854 -0.3434068 0.09017491 0.02258463 -0.05181086 -0.2305089 -0.33356363 -0.077332325 0.18587752 -0.09060692 0.24774458 0.050082326 -0.505813 -0.078724176 0.044282362 -0.24598736 -0.63751864 0.42482182 0.09548863 -0.052351147 0.26811463 -0.60844827 -0.12746537 0.38395467 -0.68892986 0.61084133 0.07617552 -0.443073 -0.051239077 -0.13023399 -0.049090575 0.46686032 -0.33309704 -0.21764511
http://www.co-ode.org/ontologies/pizza/pizza.owl#isToppingOf 0.23600587 -0.21192871 -0.056707848 0.62652475 0.10326754 0.32378325 0.03305796 -0.2830533 -0.40963367 -0.110704996 -0.31911045 0.07853018 -0.042055756 0.16800489 -0.044760056 -0.035456777 0.14261279 -0.6164037 0.21796654 -0.398575 0.06841754 -0.1838157 0.24489398 0.69821036 0.84345686 0.5567847 -0.25333437 0.43536222 -0.17618409 -0.40926152 0.09379133 -0.269063 0.18361476 0.26082647 0.41685882 0.31066695 0.9095987 -1.4881272 -0.8814382 0.16731346 0.069515936 0.24137263 0.24335465 -0.23137262 -0.30813575 -0.38080266 -0.05794463 0.0458346 0.04968255 -0.0693078 -0.33164337 -0.1777684 -0.3038218 -0.059212 -0.14814389 -0.13842936 -0.014122057 -0.1739963 -0.10186828 0.31567502 0.25122058 -0.09203146 -0.7670896 -0.36513183 -0.006202037 -0.96251947 -0.21632308 -0.49347392 -0.08773354 -0.32116118 0.06593302 -0.67612994 -0.4497689 -0.22088635 0.3008218 -0.7509489 0.022385694 -0.062602766 -0.59873235 -0.08180095 -0.21273494 0.1221533 -0.6868047 0.16111022 -0.11042497 -0.0889079 0.28431654 -0.24569176 -0.288954 -0.02004628 -0.08073318 0.65169543 -0.34923396 -0.09142488 -0.10485929 0.15298022 0.022035928 0.7314187 0.2227237 0.21561185
tomato 0.05314277 -0.06764974 0.18543151 0.40775898 0.4979918 0.05785091 -0.044414114 -0.6065612 0.029318957 -0.5416528 -0.17452718 -0.22353704 0.11245022 -0.16793835 -0.11396703 -0.06932435 -0.14282764 -0.41087586 0.29877838 0.18012927 0.33349198 0.191491 0.56745744 -0.19069435 0.48052886 -0.53292376 0.020383574 -0.1976136 -0.8203609 0.3233522 -0.6420165 -0.050196838 0.15958892 -0.39571327 0.977133 -0.07048845 0.6486664 -0.57487106 -0.1639491 0.032258473 0.19346653 -0.2520462 0.2565199 -0.16462396 -0.13989106 0.015197384 0.546908 0.15197945 0.70098734 -0.29763272 -0.26596165 0.27952245 0.05436233 0.23887965 0.0497328 -0.31594267 -0.62181723 -0.02584504 0.5405508 0.49611485 0.96425796 -0.014128494 -0.67352456 0.71821636 -0.31628942 -0.40969503 -0.107688606 -0.5997874 0.041217994 0.219096 -0.80764085 -0.33587828 -0.46371424 0.1538101 -0.5405885 -0.37689522 0.26662317 0.25335577 -0.4443419 -0.26191884 0.20724675 -0.068548925 -0.03467314 0.1920496 -0.08350736 -0.5489195 -0.49601236 -0.39681914 0.03521388 -0.43091205 0.31047955 0.31073853 -0.25263715 -0.19458601 0.5938312 0.31096166 0.40213886 0.24362347 0.6517685 0.22659494
pizzatopping 0.11040772 -0.24192888 0.16860145 0.31470406 0.08477042 0.056278378 -0.81400436 -0.23007463 0.4715789 -0.35863286 0.66553414 0.38077915 0.22885202 -0.040224023 0.09948348 0.4984225 0.17946927 -0.13775982 0.3441955 -0.06498101 -0.1755678 -0.47519684 0.27910805 0.40279296 0.98805565 -0.018460568 0.30910692 -0.25689858 -0.5168779 -0.057583507 0.42627698 0.11748853 -0.4359992 -0.06946689 -0.13666065 -0.35261595 0.45098627 -0.10302976 -0.50901085 0.5774653 0.43415493 -0.08599351 0.11231917 -0.09997474 0.1659343 -0.39563954 0.42206454 0.07279038 0.48809868 -0.035679318 0.28002182 -0.25047866 -0.39572176 -0.15222552 0.103330165 0.5654597 -0.5315581 -0.07920298 -0.24721552 0.39748436 0.9595581 0.22156352 -0.4030019 0.79625416 -0.44102386 -0.033713736 -0.15644796 -0.41830793 -0.20955057 -0.3370178 0.037915394 0.009756433 -0.7053972 -0.32096124 -0.061824203 0.3708293 -0.22485298 -0.4053495 0.0079284245 -0.33393618 0.10495188 0.2353514 -0.33077338 0.12259359 0.37830967 0.022489991 -0.94465244 -0.43439183 0.39545935 -0.8137948 -0.12111223 1.2423568 0.00087585906 0.18110795 0.19953106 -0.07811767 -0.25948033 -0.20760818 0.16086008 0.6329486
http://www.w3.org/2004/02/skos/core#prefLabel -0.1296856 -0.15300995 0.1703682 0.5567641 0.3743659 0.304565 0.17157297 -0.16628312 -0.026588442 0.4097544 -0.32468298 0.36999783 0.076216005 0.10050244 0.08058545 0.20402834 -0.02785996 -0.16240408 0.055745397 -0.26485342 -0.09209382 -0.034431778 0.20420858 0.27703828 0.82798004 0.0074495114 -0.29279312 0.5975479 0.45866844 -0.01030503 0.27158463 0.17759901 0.0720101 0.12956876 0.3474944 0.38702306 0.12702134 -0.7031208 -0.42364007 0.08954541 0.06645173 0.51395315 0.15483908 -0.21619365 0.109666646 0.46882445 0.2709794 -0.100075096 0.2764891 -0.011071349 -0.3012188 -0.13050309 -0.04179262 0.16983823 -0.29462168 0.22101623 -0.5649175 0.035867576 -0.07129501 0.31261492 0.25840056 0.13782118 -0.3324489 0.15247232 0.14994092 -0.33726352 -0.12716182 -0.59642684 -0.03493159 -0.35941744 -0.033623643 -0.3236538 -0.25496092 -0.11969283 0.05890982 -0.26103553 -0.11114518 -0.046422638 -0.3620227 -0.117433414 0.030021392 0.00885175 -0.19210596 0.36328572 -0.2630487 -0.050627638 0.10427791 0.11643745 -0.16164586 0.11828966 -0.38842365 0.25402227 0.044082265 -0.39034775 -0.04165888 -0.46677014 0.47413394 0.2519831 -0.03401907 -0.25309366
http://www.w3.org/2000/01/rdf-schema#label -0.22873901 -0.19788377 0.1512241 0.5293449 0.30157626 0.3365573 0.20120917 -0.131863 -0.06620218 0.37178206 -0.37445536 0.40046427 0.111226276 0.13619576 0.06332804 0.20404886 -0.15740675 -0.1062486 -0.012788703 -0.2793296 -0.14990403 -0.06465635 0.15462506 0.31174922 0.8940542 0.07942562 -0.19099802 0.48442274 0.4203296 0.04369926 0.32772318 0.10380416 -0.0024234252 0.054906808 0.3430181 0.48683622 0.19153449 -0.7888855 -0.34128514 0.057871114 0.035738543 0.6317217 0.14868483 -0.1020625 0.15509096 0.37035322 0.40255317 -0.083400205 0.33779964 -0.064548984 -0.1713171 -0.20178948 -0.052793644 0.29113635 -0.1139316 0.21770477 -0.5158668 -0.069617584 -0.00500746 0.45458913 0.2548545 0.026577294 -0.29817864 0.18662328 0.056941025 -0.33923748 -0.055234984 -0.53430486 -0.12707466 -0.31012407 0.023326334 -0.38901016 -0.29365465 -0.22742353 0.014000183 -0.24373561 -0.118435346 -0.032166436 -0.38565505 0.01992267 0.10149422 0.017495235 -0.18911976 0.4305653 -0.098218456 -0.029765086 0.24176 0.19106202 -0.18642771 0.09701356 -0.51615936 0.22023645 -0.009143912 -0.27466708 -0.114422016 -0.2709206 0.37494314 0.30052868 0.017117718 -0.16668469
mozzarellatopping -0.3855887 -0.2766151 -0.3110113 0.45293614 0.30431598 0.044781696 0.07489697 -0.1902403 -0.62939477 -0.6798073 -0.08629697 -0.0042626313 0.24976169 -0.4647075 -0.23640189 -0.06765986 -0.10342973 -0.66554797 0.2111472 0.090658106 0.26941544 0.044030882 0.6175964 0.036523502 0.5247989 -0.4406882 -0.29658803 0.20739248 -0.80040765 0.1257946 -0.6771308 0.12845188 -0.17040722 -0.26305798 0.8575658 -0.1151113 0.3211144 -0.17249678 -0.19034575 -0.043837354 -0.13537559 -0.6887737 0.21335328 0.04912197 -0.13139594 -0.23729008 0.29719287 0.40672195 0.5546635 -0.20993754 -0.02578526 -0.040692523 0.08390267 -0.20604311 0.045118906 -0.38949528 -0.2150808 0.040646788 0.20636183 0.32569748 0.9194162 -0.065015785 -0.5729939 0.80933654 -0.103693254 -0.17456757 -0.23192354 -0.5654846 -0.109189406 -0.2557776 -0.45585454 -0.07083734 -0.15938696 0.10206633 -0.20479128 -0.7137859 0.3714339 -0.110701874 -0.46682063 -0.5647703 -0.113206714 0.30483085 -0.22867447 -0.050936516 -0.33553815 0.1588387 -0.25064507 -0.30888155 -0.15055473 0.11246708 0.41791576 0.14169513 -0.0324526 -0.07620208 0.38761744 -0.15957855 -0.10535283 0.12768455 0.35452214 -0.5209061
altlabel -0.24280229 -0.017365474 0.26156908 0.7355158 0.45633298 0.99254537 -0.278844 -0.2771671 -0.012105629 -0.08432963 -0.14641078 0.45044053 0.3041423 0.03729958 0.6640982 0.17619681 -0.54591405 -0.55578333 0.60723513 -0.19221838 0.32761773 -0.07935753 0.6199973 0.25273156 1.3997504 -0.06610886 -0.15675935 0.04500513 -0.16826929 0.1692915 -0.28836417 0.017670732 -0.35531676 -0.20426892 0.9694477 0.20564175 0.94234115 -0.66677976 -0.12813887 0.40112716 -0.3254451 0.12833579 0.015824161 -0.10896637 -0.029512612 0.23478667 0.42997795 -0.17829363 0.7256748 0.036702774 0.105932996 0.073911205 0.06270701 0.09130337 0.4906578 -0.1868905 -0.45320928 -0.05760951 0.26527917 0.47352847 0.595895 -0.05453494 -0.5092786 0.58579826 -0.063450485 0.218247 0.012586578 -0.25158095 -0.022358881 0.19013712 -0.02812584 -0.21808694 -0.4973101 -0.36825207 -0.15732346 0.002990261 -0.0028059732 -0.17912708 -0.21528718 -0.14424312 0.17951985 -0.13290241 -0.09158918 0.09216211 0.029076101 0.13609174 -0.08464791 -0.3947642 0.05846388 -0.25709915 0.26875928 0.24288051 -0.08750759 0.11600673 0.43855697 0.55724937 0.15197489 0.13022119 0.21930826 -0.0776306
tomatotopping -0.07243141 -0.19700247 0.15447114 0.23681663 0.3055638 0.36878398 -0.085946985 -0.6649726 -0.26680702 -0.55649453 -0.16388778 -0.048655186 0.17650056 -0.11586634 0.037527774 0.07768118 -0.15522556 -0.585237 0.30406153 0.24684595 0.35185504 0.25729543 1.0164906 0.034149688 0.5244126 -0.49834096 0.08764286 -0.01683091 -0.42626283 0.48240468 -0.84768426 0.049355075 -0.108206436 -0.29310277 0.77125293 -0.039239403 1.0351415 -0.49912247 -0.29284143 -0.15465106 0.31806368 -0.31494468 0.061477896 -0.14786908 -0.103012286 0.100103684 0.5663539 0.24570888 0.8298617 -0.35809714 -0.22545768 -0.006069342 0.07138579 0.09297152 0.073924355 -0.1766752 -0.6851242 -0.037967343 0.47548926 0.31887046 1.0629314 0.15239458 -0.6989963 1.0531446 -0.31934106 -0.2276732 -0.29553923 -0.75627214 -0.07851414 0.085425965 -0.8195398 -0.2681413 -0.78034997 0.2645119 -0.23974319 -0.27916473 0.16205639 0.15908143 -0.29216757 -0.39827317 0.13723405 0.029801128 0.039825384 0.17333977 0.11927811 -0.37654188 -0.748562 -0.51883405 0.016211241 -0.22182141 0.4565524 0.044197522 -0.09085161 0.07433671 0.2540977 0.5949421 0.4419843 0.22004832 0.28850275 0.19980858
http://www.co-ode.org/ontologies/pizza/pizza.owl#PizzaTopping 0.22741531 -0.5132662 -0.609391 0.5318251 0.17714545 0.058971938 -0.39064085 -0.41606003 0.11113981 -0.12064881 0.09621939 0.34316048 0.17684126 -0.08518752 -0.19961451 0.06476403 0.29715258 0.18884036 -0.22894424 -0.7668821 0.063653305 -0.75578165 -0.05352436 0.6129993 0.90801084 0.27542537 0.0599346 0.11080536 -0.2935972 -0.031500917 0.7261069 -0.13101049 0.41203365 -0.14291133 0.04442598 0.028865304 -0.29814532 -0.6867103 -0.09820256 0.6592597 0.32747418 0.3386311 0.31477407 -0.19448845 -0.006664038 0.09536213 0.374839 -0.029878292 0.18315251 0.05613829 0.22437407 -0.36431524 -0.33148825 -0.16643836 -0.019122439 0.47725368 -0.60917646 -0.10405664 -0.15706079 0.52219504 0.10820896 0.45497414 -0.35319754 0.09397776 -0.33312646 -0.4282412 -0.13313065 -0.16079944 -0.45432502 -0.07370799 -0.1579041 -0.30712456 -0.17897624 -0.5729585 -0.23406257 0.042484444 0.020985672 -0.31458232 -0.2811037 0.041865677 0.15962912 -0.26474193 -0.5894872 0.62608075 0.28284118 -0.046227463 -0.0324512 -0.26788935 0.14063708 -0.31825557 -0.7905513 1.0945011 -0.24951003 -0.30156165 -0.07430966 -0.3469123 -0.04547912 0.4405251 0.049127705 0.4750142
hot -0.13814917 -0.5673245 0.12581618 0.9326638 0.5492541 0.3741879 -0.449086 -0.24819727 -0.47381654 -0.23411913 -0.11787728 -0.06919911 0.5892543 0.12046486 -0.36430964 -0.12077007 0.057059877 -0.2502699 0.34428355 0.25231573 -0.10665162 0.14977418 0.51414907 0.28593287 0.2984959 0.32951972 0.101370215 -0.32154474 -0.7153405 -0.29844585 -0.12840754 0.38161594 0.5794073 0.16407298 0.304922 -0.033291418 -0.09109708 1.0039496 -0.1420832 0.1130058 -0.23949899 -0.0841896 0.8474314 -0.0072117206 0.22500943 -0.4272681 0.31170568 0.6545387 0.15792155 -0.6079181 -0.1149955 -0.38207224 0.08524976 0.23344903 0.73134375 -0.07727528 -0.66084355 -0.16479945 0.18253678 0.6156848 0.3020165 0.35249913 0.14550053 0.5168695 -0.33437368 -0.3595616 -0.16992937 -1.3806252 -0.37721518 -0.42024735 -0.29005763 0.14826123 -0.6546601 -0.7846328 0.18199895 0.31819582 0.5231417 0.07475039 0.2772376 -0.39868 -0.44245335 0.04608201 -0.27803868 -0.046049014 -0.52768195 0.3639759 -0.32823426 -0.5768023 -0.28126374 -0.009792299 -0.43456534 0.49855998 0.06624048 -0.22104411 -0.04527261 0.22816917 0.12595636 -0.11521965 -0.5018387 0.43317306
mozzarella -0.46669385 -0.4354423 -0.15465316 0.26997867 0.101136796 0.19781722 0.054441366 -0.15985245 -0.7318689 -0.8131473 -0.10775999 0.04188376 0.29502442 -0.52551377 -0.1317953 -0.08103024 -0.22965425 -0.77666765 0.08427067 0.055309135 0.2782946 0.3474517 0.9219971 0.099873915 0.66595584 -0.48326838 -0.2914484 0.48766565 -0.5553015 0.31136146 -0.7994783 0.1544422 -0.39401475 -0.15790226 0.7457724 -0.2179819 0.7364173 -0.1490998 -0.189896 -0.10297469 0.047725976 -0.79360634 0.009050799 -0.029521957 -0.25554243 -0.20113291 0.13542089 0.39912304 0.8055795 -0.3578495 -0.15356463 -0.41367483 0.12486217 -0.2031974 0.116795756 -0.29752424 -0.45982182 0.02613262 0.14632711 0.20106408 1.1014119 0.28499836 -0.5312485 1.2229816 0.042436674 -0.109498136 -0.21661647 -0.84894675 -0.09746202 -0.35215566 -0.5870212 -0.09897951 -0.58841896 0.22592795 -0.10444566 -0.58694774 0.2353121 -0.15160505 -0.38734058 -0.7248333 0.025760049 0.43136284 -0.102963686 -0.021220572 -0.21008554 0.13550256 -0.61960423 -0.5238293 -0.20525797 0.036715943 0.6973088 -0.09909288 0.07300175 0.28772315 0.2008025 0.15109983 0.1655221 0.18949352 0.11714562 -0.451935
american -0.22631706 -0.7142211 -0.079235606 0.36875266 0.18811134 1.0796502 -0.44489744 0.35507947 -0.501533 -0.32588878 0.25625318 0.3875075 0.5163794 0.3526164 -0.36187077 0.10156095 0.36458924 -0.3079801 0.1673766 0.1207469 0.063368306 0.035868455 0.7022116 0.33064753 0.07924151 -0.23767033 0.15408565 -0.013346371 -0.7653352 -0.1373713 -0.27930686 0.33250815 0.93039906 -0.32481256 0.70529157 0.1683941 0.41112918 0.7266528 -0.15991713 0.516098 0.02166405 0.17979549 1.0426073 -0.05832033 0.20404452 -0.18541098 0.30199412 0.94474345 0.87499535 -0.5534765 -0.25632688 -0.51487046 -0.17910333 -0.17270206 0.9249408 0.0072812187 -0.27567422 0.22181985 -0.17552412 0.90416676 0.58781224 0.065531924 -0.29806682 0.45942372 -0.47051075 0.082127675 0.14082932 -0.64329433 -0.25658432 -0.16995408 0.07424287 -0.10777924 -0.08767566 -0.69080585 0.47495636 -0.21755311 0.114200555 0.20701812 0.654903 -0.1750342 -0.2719279 -0.09149146 -0.46334335 0.28791082 -0.36053136 -0.020755967 -0.47202945 -0.266883 -0.035784885 -0.15214881 -0.66063106 0.00091128185 -0.011838081 -0.7593979 -0.22705267 -0.2303391 -0.01232677 0.14523399 0.0097959 0.35638145
pepper 0.29388285 -0.9753959 -0.0037874505 0.9026988 0.48153335 0.6341325 -0.045269318 -0.14848143 -0.17761604 -0.1602698 -0.01767136 -0.22666186 0.36278376 0.052383572 -0.703124 0.38463852 -0.03947488 -0.781732 0.12704375 0.33760074 0.5407342 0.16659385 0.4005554 0.363494 0.41888207 -0.35381666 0.05920063 -0.6393827 -0.30695027 -0.61804575 0.0051336447 0.54466754 0.5926429 -0.7258983 -0.20146707 -0.42914426 0.4626352 0.53785086 -0.4461936 0.67704624 -0.43429053 -0.42346758 0.36786428 0.1316889 -0.17002708 -0.95786864 0.39001283 0.8760119 1.1234697 -0.6410169 -0.11909468 -0.04125736 0.1665212 0.44183505 0.4735935 0.2521137 -0.6273144 -0.14179024 0.098022655 0.32961264 0.59931856 0.17014474 -0.31814823 0.8679979 -0.60850257 0.2500529 -0.05025558 -0.76561135 -1.0910009 0.29508454 -0.16825017 0.29105866 -0.6401519 -0.3548415 0.33862466 -0.5785484 0.34766132 0.3892172 -0.2923632 -0.49182534 -0.20306686 -0.3003713 -0.14131826 0.87801164 0.25628 -0.11530525 -0.9982624 -0.8389768 0.048643973 0.008854231 0.31476334 0.38576648 0.3207513 -0.18971962 0.13196681 -0.043083467 0.18321386 0.5051212 -0.41513515 -0.26483914
http://www.co-ode.org/ontologies/pizza/pizza.owl#Pizza 0.41981646 0.12547232 -0.35942134 1.0914996 -0.049275633 0.36359084 0.3322014 0.035636667 -0.59296584 -0.17826858 -0.5429044 0.29482552 0.033380583 -0.24698023 -0.05829152 -0.57299197 0.03162747 -0.29471606 -0.2974886 0.3153402 0.49642476 0.3016058 -0.07530851 -0.0557858 0.7251764 0.13562705 0.15568277 0.68492776 -0.5279403 0.030860826 -0.3850039 0.18405215 0.17394042 0.2231423 0.44640112 -0.010279227 0.7120629 -0.6332373 0.11622622 -0.5127542 0.45639363 -0.064463645 -0.3191571 0.13230692 -0.5345296 0.75576526 -0.064674735 0.34309384 -0.66792375 -0.15180199 -0.65999347 -0.17686848 0.48769534 0.015170712 0.28712144 0.026658565 -0.29040387 -0.10514072 0.025874825 0.045710035 -0.008825842 -0.33828574 -0.7339539 -0.39206368 -0.023316298 -0.38604864 -0.5552887 -0.67874867 -0.078243636 -0.21678567 0.03488545 -0.54002136 -0.56555605 0.1716783 -0.15517811 -0.38763195 -0.12829617 0.024654279 -0.59932244 -0.67664313 0.50055325 -0.12783833 -0.59371495 0.5865484 -0.052334465 -0.17401722 -0.75965595 -0.54576784 -0.519806 0.30204475 -0.22604625 -0.122172534 -0.37027135 -0.007584758 -0.66615474 0.12115228 0.78789854 0.0021167854 -0.16218242 -0.40822104
cajun 0.567277 -0.6703816 0.1576468 0.34385443 -0.22701196 1.0301504 -0.1796985 0.23839474 -0.3111593 -0.23505925 -0.10072976 -0.48360425 -0.031591836 0.64225703 -0.3108619 0.35687077 -0.27966636 0.13764386 -0.03024193 0.18126103 0.5130609 -0.00431689 0.08259196 0.6013847 0.7884607 -0.008860771 -0.534825 -0.08452341 -0.38214648 -0.7490133 -0.17822757 0.239664 -0.036275163 -0.7311888 0.16061255 -0.032903913 0.6098187 0.3996296 -0.19539176 1.3919089 0.16635945 0.044495378 0.6210376 -0.19048016 -0.09757921 -0.32518765 0.5401916 0.46723315 0.26454946 -0.13260202 -1.0593326 -0.13159472 -0.40068972 0.0891585 0.39801934 0.08378875 -0.20220934 0.005572845 0.12779284 0.53375524 0.5744739 -0.1147707 0.41763434 0.87103033 -0.31827128 0.071724564 0.035590444 -0.7065111 0.101473115 -0.36701337 -0.3048232 -0.06472494 0.10866171 -0.25117987 0.13937713 -0.00011614219 -0.23251045 0.36160964 -0.5237538 -0.4200844 -0.07359801 -0.23889461 -0.2543409 0.15020332 0.29591712 -0.74144137 0.108430795 -0.94171786 -0.48289183 -0.54753304 0.083311595 0.58039176 -0.110444784 0.11107515 0.008333829 0.22370115 -0.41677856 0.52152324 0.24040437 0.122989595
giardiniera 0.8906091 0.08378804 -0.034002505 0.08611154 0.7031678 1.0938344 -0.44349155 0.44247255 -0.23920643 -0.23561387 0.04234581 0.14498454 -0.057082534 0.03415996 0.09683938 0.17661181 0.7075163 0.12586246 0.78396064 -0.12520531 0.23067531 0.24856296 -0.12182457 0.6198849 0.5840656 -0.33720464 -0.27142334 -0.16457213 -1.1026008 -0.16012836 -0.110681064 0.47886974 0.06671304 -0.025096843 0.64527446 -0.46251392 0.07601459 -0.35924596 0.19795544 0.8750442 0.5728651 -0.19245121 0.5357268 -0.6472886 0.07462669 0.067974225 0.30232874 0.5552379 1.0922972 -0.29364148 -0.36692667 -0.42221442 0.26474214 0.17951244 0.4191639 0.2577005 -0.72353154 0.5049989 0.24579138 0.99986124 0.48674852 0.44563356 -0.38191512 0.43298462 0.083693966 0.091018155 0.14070128 -0.6335603 0.56029004 -0.6217791 0.080854334 0.022022616 -0.1769779 0.17740595 0.16898817 -0.06240004 -0.14868103 0.76209205 -0.44829726 -0.50117844 0.121513635 0.02706994 -0.115983054 -0.01679178 -0.2994506 -0.32657874 -0.5410585 -0.486534 0.23295313 0.23847662 -0.047506273 0.70225906 -0.24455968 -0.37450832 0.8761624 -0.061462738 -0.39675674 -0.029030714 0.0975818 0.4094142
vegetable 0.16883108 -0.022733573 -0.4343178 0.3211271 0.35322654 0.58628863 -0.5573654 0.23076838 0.08332271 0.59854615 -0.016161375 -0.078474 0.20428589 -0.26748815 0.27289575 0.35611483 0.18183737 -0.46052942 0.7911242 -0.8275253 -0.11604257 -0.5174319 -0.06811647 0.2971363 0.55127966 -0.17525987 -0.17198497 -0.08744222 -0.42283913 0.33122462 0.5140255 0.31917086 0.20250782 -0.6482804 0.43116894 0.017135182 -0.08979325 -0.4703424 0.33594167 0.5376271 -0.03770107 -0.12064231 0.09715469 -0.3166691 0.04862555 0.48555097 0.059397385 -0.15220156 0.49255866 0.67900693 0.15494189 -0.39495957 -0.40342686 0.2620885 0.50303036 0.66185164 0.1310445 0.3837404 0.13071167 0.97991 0.029237004 -0.08349197 -0.09431018 0.11656167 -0.5364091 0.11486794 -0.049935102 -0.49330494 0.036138006 -0.9652487 0.11868758 -0.36098644 -1.0872841 0.36512503 0.19825834 -0.1851194 -0.60247666 0.08027053 -0.64381474 -1.1746316 -0.118895136 0.53732437 -0.5324892 -0.005738435 -0.19934392 0.04039016 -1.012982 -0.79363245 0.53833663 -0.13966522 -0.4406403 1.1682284 -0.16960554 -0.47488198 0.21751748 -0.31789348 -0.3071191 0.3451289 0.57843554 0.41637054
some -0.7540303 -0.5166162 0.09200886 0.6905346 0.49755812 -0.39221966 0.11869522 -0.5682269 0.21388471 0.105303876 0.24004135 0.13030595 -0.18788268 0.13292061 -0.12731442 0.2511951 0.17034088 -0.13204156 0.2458208 0.2609288 0.21167807 -0.06777251 -0.2093838 0.53667164 0.4032912 0.51542526 0.2272975 0.5857104 0.46738905 0.038740806 -0.4718274 0.3363725 -0.34128478 0.002702946 0.56257993 0.09709224 0.3451851 -0.45699987 -0.91684216 0.064016074 0.4831479 0.32651353 0.1344203 -0.044348236 0.14140835 0.24803375 0.9443257 0.43246967 1.0371317 -0.32202944 -0.46131995 -0.30670625 -0.19901808 0.088760994 -0.6962415 0.19376008 -0.13334697 -0.15272173 -0.016864834 0.65475196 0.38240921 -0.4544191 -0.6938959 0.40788335 -0.30262327 -0.95492154 -0.71206117 -1.2358526 0.5198779 -0.62216353 -0.019939214 -0.08015381 -0.2973204 -0.0414391 0.40033552 -0.43332076 -0.1498278 0.037592985 -0.55160064 -0.34620848 -0.23483215 -0.09092697 -0.35675955 -0.6437328 0.2444679 -0.03017282 -0.07993664 0.1357754 0.21208377 0.4045735 -0.25692114 0.4116978 0.33963898 -0.14909583 -0.0129428115 0.052022476 -0.3257528 0.23825985 0.2900865 -0.37958607
veneziana -0.03705766 0.13098359 -0.003712462 -0.05941709 -0.08306998 0.9351924 -0.15312263 0.4899933 -0.71529144 -0.1308247 -0.13992597 0.3698364 -0.2000931 0.4078892 0.18126261 0.20887595 -0.112032 -0.3400037 0.29466283 -0.9352026 0.38765922 -0.20418073 0.5133527 -0.019576455 0.4673391 -0.0066841035 -0.6421691 -0.070700295 -0.80849576 0.21333365 -0.3203123 -0.077381685 0.575627 -0.31784752 0.6462064 -0.00072917476 -0.7268288 0.16110924 0.10138946 0.65804577 0.13477398 -0.40430325 1.0736967 -0.13366981 0.328422 -0.16891252 0.58826315 0.1936058 0.76499647 0.15238218 -0.7283807 -0.6816133 -0.47252342 0.13945647 -0.29197064 -0.22346759 -0.5111385 0.07930678 -0.070862666 0.68403333 -0.32713333 -0.28026623 -0.026492447 0.5846513 -0.2273012 -0.08852712 -0.018725652 0.0013938309 0.4751499 -0.6560515 -0.6649937 -0.41959497 0.117675036 -0.10832381 0.18430392 -0.051375855 -0.27873605 -0.26190972 -0.22872913 -0.6986534 -0.11883459 0.846885 -0.035387434 -0.41705382 -0.009828572 0.086830474 -0.9012171 -0.8987864 -0.14018242 -0.5463232 -0.5640501 0.555698 0.09207195 -0.20342125 0.42059982 -0.1617676 -0.56602854 -0.0040616314 -0.18315399 0.53714204
mushroom 0.15335384 0.30620474 -0.1632177 -0.08335768 0.05777575 0.4905627 -0.08438744 0.5038884 -0.77488035 -0.1931781 -0.016878061 0.4041751 -0.12973277 -0.035969052 0.096762516 -0.51172394 0.1794492 -0.4144285 0.0032766093 0.07394574 0.26833558 0.33826625 0.6347627 0.2134521 0.46560597 -0.6290855 0.105458096 -0.60536605 -0.58344656 -0.06484059 -0.39935794 0.23779792 0.39400902 0.19938338 1.0278608 -0.1116374 0.5144219 -0.49893412 0.10342708 0.52949184 0.50523525 -0.22186963 0.43876886 0.07651396 0.17871244 -0.22838403 0.17576636 0.18899994 0.40099135 -0.26812363 -0.2995291 0.0053398213 0.2479501 0.4382929 0.47999042 -0.019556997 -0.2577902 0.4786311 0.13151217 0.79339945 0.16145094 0.6319132 -0.05735401 0.6553929 -0.1528132 -0.3872169 -0.15896477 -0.944252 0.17770404 -0.2734866 -0.13153881 0.18367152 -0.5773397 -0.25971892 0.12518993 0.034422614 0.017421693 0.27600077 -0.09760605 -0.44996673 -0.015464183 0.8105083 -0.23744506 0.13635653 -0.64866513 -0.7828935 -0.4265036 -0.2616834 -0.23615423 0.25479484 -0.14358822 0.30181825 0.2495686 -0.33017382 0.3066964 -0.5262652 0.29852313 0.62560725 0.44656894 -0.12599881
http://www.co-ode.org/ontologies/pizza/pizza.owl#TomatoTopping 0.24901639 -0.18647656 -0.09357917 0.5387919 0.41597378 0.06101164 -0.050617363 -0.6498711 -0.19886297 -0.41946825 -0.61597896 0.23230052 -0.107546605 -0.033126302 -0.31345147 -0.5260425 0.07685854 -0.40124312 -0.0066809747 -0.33482647 0.14297143 0.09681525 0.44666147 -0.12106693 0.24268314 -0.29183036 -0.22731507 0.26644439 -0.6826672 -0.03688833 -0.48172548 0.061713334 0.4288845 -0.31039795 0.9204127 0.124389425 0.40141958 -0.7239805 -0.12747864 -0.17570049 0.08925501 -0.118535385 0.235717 -0.22725937 -0.25115958 0.30602473 0.42802334 0.25354645 0.68904036 -0.2535075 -0.4524516 -0.18956535 0.23712601 0.26495484 -0.23057088 -0.32939735 -0.45518672 -0.21798038 0.35741904 0.29767755 0.55357975 -0.06043118 -0.8504934 0.060322806 -0.31037557 -0.8418457 -0.09739095 -0.75998443 -0.02664167 0.079376884 -0.64323294 -0.19610742 -0.4030646 0.23829961 -0.07736293 -0.9470072 0.3078219 0.3330586 -0.61399627 -0.08214367 0.23886904 -0.43532556 -0.2749418 0.36018604 -0.25110617 -0.40863258 -0.19557719 -0.25148916 -0.021656878 0.18954729 -0.35032162 0.3930906 -0.38915345 -0.315426 0.5110262 0.07796338 0.4741113 0.3229085 0.5815431 -0.10877457
base -0.49080983 0.09751722 -0.412671 0.59852636 0.41094685 0.37536344 0.31734717 0.032548383 -0.6235793 -0.48419133 0.4059535 0.0810605 0.012414457 -0.09830242 0.288259 0.24768583 -0.48120242 0.1618681 0.08875417 0.6786843 0.46424925 0.1973496 0.3166578 -0.11506994 0.87889636 -0.36424077 0.19317585 -0.027933093 -0.42519936 0.25806227 -0.8653698 0.15903287 -0.5400695 0.24117422 0.064161256 -0.45283124 0.4330377 -0.35977477 0.090551406 -0.0003804929 0.80731153 -0.4651835 -0.3100495 0.31199735 -0.40206578 0.32909143 0.5320896 0.6895717 -0.14325213 -0.18225336 -0.35707945 -0.17070118 0.50712943 0.22837435 0.11335951 -0.0072394423 -0.63272595 0.03918183 0.04418923 0.26369154 0.25420755 0.061431322 -0.33713794 0.8582948 0.20866562 0.16293779 -0.36706614 -0.6872355 0.0054647257 -0.09532167 -0.21613358 -0.20519724 -0.40543815 -0.024065444 -0.22760499 0.32041904 0.054019477 0.22337516 0.31152356 -0.40748438 0.7634406 0.056693684 -0.4347082 0.38396084 0.27057642 -0.08418387 -0.9322578 -0.72433627 -0.44638947 0.1957846 -0.12783685 -0.10899271 0.03524664 -0.16563302 -0.3846372 -0.08413881 0.58198553 -0.061542276 -0.706399 -0.3349778
http://www.co-ode.org/ontologies/pizza/pizza.owl#hasSpiciness 0.10023859 -0.3463137 -0.36476368 0.5561396 0.3546061 -0.35498586 0.29478204 -0.05064291 0.35366926 0.03018315 -0.2929363 -0.09559673 -0.18805069 -0.04912529 -0.21849781 -0.07610482 0.1863209 -0.16473356 0.43047455 -0.31649148 0.72658974 -0.26565376 -0.5605283 -0.016099004 0.59564334 0.38372535 0.2737938 0.11134719 -0.07639358 0.101857975 0.5940162 0.04674061 -0.04046618 0.25648722 0.8006587 0.10562436 0.45789373 -1.0067253 -0.8008234 0.5135113 -0.21201949 0.6014148 0.50270355 -0.14723442 -0.09944601 -0.01890591 0.2072589 -0.084513806 0.78415686 0.06647307 -0.5244889 -0.36718118 0.111670434 0.059467684 -0.39913964 -0.092355795 -0.2056524 -0.11913885 -0.58874243 0.6864338 0.42759547 -0.3016258 -0.43526468 0.1821415 -0.2313666 -0.8100637 0.03496697 -1.1210227 -0.2131948 0.11630773 0.07355026 -0.33794302 -0.510338 -0.7357464 0.1841064 -0.8453248 -0.18888901 0.065901965 -0.49073005 -0.192955 -0.18169186 -0.38829255 -0.47754347 -0.079173766 0.15092209 -0.07008273 -0.26141155 0.09854547 0.29848883 -0.40530092 -0.4976818 0.6348379 -0.29483983 -0.39994946 0.06933887 -0.120457925 -0.05138901 0.38396457 0.47277385 -0.04886356
siciliana -0.45121482 -0.050474085 -0.4365964 0.7926428 0.18881913 0.8933955 -0.6184217 0.5202338 -0.7348527 0.2134393 0.44495344 0.31413645 -0.14006254 0.018269308 0.18286371 -0.29401177 -0.41580498 -0.47454572 0.23876673 -0.03332974 0.049172528 -0.30579314 0.6417602 0.30309168 0.35126358 0.10727885 -0.3618731 -0.35072607 -0.69023955 -0.49434793 -0.79058033 -0.071517155 0.15705483 -0.2900702 0.4865214 0.16837563 0.26649436 -0.41042575 0.41231966 0.60503685 0.5189052 -0.087967284 0.37633842 0.047591593 0.0254917 0.27519244 0.48108277 0.4464655 0.36277375 0.4123182 -0.5145923 -0.39373374 -0.27144918 -0.21785729 -0.19005659 0.5866117 -0.055837773 -0.14350271 -0.15993558 1.3307248 -0.22796111 0.22339787 -0.0019359287 0.6483473 -0.094341986 0.049220603 -0.61889976 -0.5111028 0.14585008 -0.72382593 -0.42946324 -0.48244628 -0.17763601 -0.03486697 -0.4482969 0.21439599 -0.55317736 -0.5040645 -0.050174005 -0.30285168 -0.21522401 0.21755739 -0.19999728 0.0893549 0.2361261 -0.55195224 -0.39704612 -0.14180101 0.62545586 -0.2727978 -0.21542825 0.14099064 -0.45555001 -0.5276966 -0.1452702 -0.3533515 -0.14320885 -0.020943867 0.30080816 0.48876604
capricciosa -0.008548515 -0.18233877 -0.084057346 0.6205714 0.11417381 1.2262682 -0.6149515 0.270569 -0.8374886 0.06332853 0.4958942 0.43086684 -0.31409955 0.33029497 -0.106704324 -0.009939388 -0.15985426 -0.46825457 0.2803781 0.01945122 0.35941768 -0.3684161 0.16302767 0.18875656 0.69363314 -0.1444671 -0.17855555 -0.52863055 -0.8277454 -0.5991847 -0.3217173 -0.17148058 0.19804661 -0.03301851 0.5307397 -0.19300862 -0.2726917 -0.5061754 -0.00394183 1.0629698 0.4224183 -0.11373496 0.42064947 -0.579088 -0.20316398 0.030801894 0.51902777 0.6883752 0.81212044 -0.15683518 -0.5207469 -0.75407803 -0.32675514 -0.289966 0.055788707 0.39132252 -0.27039048 0.021795703 0.10015363 0.9821769 -0.17145646 0.25984257 0.045733057 0.57021594 -0.16938923 -0.05159924 -0.44810554 -0.545651 0.18970993 -0.6495204 -0.4735244 -0.2576587 0.3271378 -0.27664813 0.01293756 0.15981509 -0.43623292 -0.42517677 -0.091369726 -0.46231592 -0.4493985 0.27369276 -0.11174874 0.17723423 0.04999706 -0.22187348 -0.48444873 -0.64665174 0.40366706 0.038856857 0.06497248 0.25434315 0.18233848 -0.3421068 0.28915563 -0.12207292 -0.2701319 -0.072030336 0.22791813 0.440279
four -0.32624033 0.102179416 0.2454149 -0.19216003 0.8704031 1.1098648 -0.015919335 0.47583586 -0.9090661 0.1539839 0.18745609 1.0674978 -0.067632146 0.24203515 0.53402925 -0.3229332 -0.18856098 -0.12347294 -0.20148575 0.027616791 0.06729708 -0.390864 0.5681513 0.13645259 0.7442932 -0.06325716 0.32088745 -0.52692074 -0.50806385 0.43223372 -0.25740248 -0.6682532 0.23415503 0.646105 0.44909236 0.3222591 0.1841362 -0.35496557 0.13373505 0.43585625 0.40759316 -0.23683074 0.92406714 0.4461761 -0.017720355 0.31772995 -0.13264877 0.32609186 1.432405 -0.41998303 -0.35771373 -0.6593148 0.20194624 -0.25063676 0.4923661 0.33442274 -0.55527127 0.3373372 -0.44200042 0.42593926 1.0312124 0.40267837 -0.23600377 0.75889385 -0.5663837 0.15826361 0.10492016 -0.79732746 0.3097368 -0.4630615 -0.538025 -0.22914442 -0.58470255 -0.29081917 -0.24190754 0.2867163 0.23559994 0.55166554 0.40526077 -0.8660143 -0.2962005 -0.10346332 -0.009761898 0.015592578 0.070829496 -0.2073324 -0.7833539 -0.70194185 -0.06760582 -0.07299978 0.10968846 0.847665 -0.06698042 -0.41290274 0.27365485 -0.20302346 -0.6046839 0.29871616 0.5514089 0.47967333
http://www.co-ode.org/ontologies/pizza/pizza.owl#MozzarellaTopping 0.060449436 -0.24758244 -0.5353146 0.5524711 0.32621405 0.04845631 0.1401262 -0.31987512 -0.51501757 -0.3328517 -0.45902675 0.41660073 0.008277568 -0.22704528 -0.42860496 -0.36822954 0.03301157 -0.5610559 0.033713724 -0.1941384 0.06285857 -0.010093088 0.34976408 0.12568112 0.4588771 -0.21058676 -0.62758195 0.52612543 -0.80502695 -0.14329179 -0.6534121 0.18260886 0.24150151 -0.032634284 0.9324989 -0.035459213 0.35304254 -0.483363 -0.060933657 -0.19893835 0.047283262 -0.40973708 0.2414963 -0.11314012 -0.32498848 0.12126889 0.23181213 0.37118337 0.4674748 -0.1458081 -0.42686656 -0.352781 0.050244432 -0.053929273 -0.31963608 -0.45452312 -0.06564454 -0.10368364 0.12228475 0.30456242 0.39165565 -0.18657444 -0.65200067 -0.09447645 -0.2172764 -0.5888516 -0.30618456 -0.7525057 0.081176765 -0.3782537 -0.4518714 -0.09015805 -0.22619842 0.17855631 0.058950942 -1.0977442 0.44225392 0.1546411 -0.65925944 -0.28084853 0.00029197187 -0.30471733 -0.16099063 0.25365576 -0.4287928 0.12722762 0.028235588 -0.38934427 -0.29789254 0.439058 -0.322308 0.15390074 -0.32225385 -0.33944014 0.23312232 -0.46225226 0.08205405 0.34690174 0.31423742 -0.5185455
olive -0.52361554 0.3713975 -0.37535882 0.18100439 0.2594624 0.29508486 0.17986399 0.14137083 -0.7949065 -0.44589114 0.032485485 0.1410415 -0.13714609 -0.0013100357 -0.2326472 -0.3000795 -0.32983026 -0.7421561 -0.038789053 -0.31064683 0.25752363 0.18233919 0.53433096 -0.058482796 0.7190803 -0.516991 -0.07522907 -0.27373552 -0.37899595 -0.18621783 -0.72226673 0.15451136 -0.04104689 -0.10814073 1.4023265 -0.27617833 0.3218741 -0.73101586 0.037360318 0.24091953 0.2657553 -0.3979288 0.076518424 -0.06271019 0.105053365 -0.2636252 0.17462066 0.28308067 0.9008275 -0.1608083 -0.2091211 -0.20754063 0.100566536 0.4149938 -0.37197775 -0.21518525 0.06483832 0.16470326 0.35255858 0.69653356 0.05088827 0.16713206 -0.1776628 0.40574747 -0.20778275 -0.17266504 -0.39714217 -0.48593944 0.18033567 -0.25858903 -0.5418911 -0.25782055 -0.64316005 -0.16997722 -0.388692 -0.31507787 -0.22026588 -0.0031652297 -0.41343814 -0.46017906 0.08614145 0.53294814 -0.10050238 0.04663154 -0.13634755 -0.480124 -0.50762945 -0.4026499 0.26064354 -0.13647634 0.009081565 0.032890867 0.3837165 -0.26526254 0.22440644 -0.43728188 0.1869552 0.36273277 0.47629547 -0.28050578
fiorentina -0.06922661 -0.012889089 -0.643183 0.14323631 0.2150742 0.83463854 0.10369001 0.7946532 -0.38907158 -0.0966286 0.2593699 -0.20423204 -0.13918008 -0.238497 0.24565658 -0.031787135 -0.09342256 -0.06609877 0.51591957 -0.75344634 -0.032365963 -0.33992085 0.67989224 0.006638675 0.7132718 -0.17786932 -0.12118012 -0.0483281 -0.84269845 -0.21700343 -0.8723143 0.22337216 0.17820187 -0.5378539 0.49214256 -0.4490846 0.16447826 -0.100656085 0.61309886 0.38029447 0.38869387 -0.2047029 0.4599755 -0.15073618 0.24841063 0.11699048 -0.17690092 0.24819468 0.8750365 0.7084973 -0.5790003 -0.061878867 0.34216756 0.14930908 -0.26097795 0.5988316 0.04852811 0.113989785 -0.16277574 1.0012002 -0.07905744 0.007146291 -0.79917383 0.7310123 0.054016545 0.15498118 -0.4146198 -0.38404238 0.10208102 -1.2398329 -0.3286495 -0.5786777 -0.3940761 0.11821794 -0.30588326 -0.058873516 -0.48754027 -0.20055485 -0.41872922 -0.34769917 0.40660265 0.4392953 -0.33242628 0.09374475 0.2562093 -0.3859918 -0.3428051 -0.061226457 0.2885555 -0.43697503 -0.2563611 0.28272817 -0.5465688 -0.74360925 0.3681245 -0.15318415 -0.23261163 -0.08760982 0.14337437 0.20574807
soho -0.13453984 0.1011819 -0.83337575 0.20433412 0.2223928 0.6258714 -0.091054425 0.576875 -0.44592598 -0.14348897 0.043128204 -0.10724535 0.11954749 -0.26278192 -0.021456083 -0.09386044 0.040450957 -0.21880758 0.60869193 -0.83719265 -0.014584265 -0.28054085 0.6684563 0.1068053 0.5862381 0.1696748 -0.19015777 -0.15794241 -0.69143206 -0.17221847 -0.6202135 0.38696113 0.3245558 -0.43767986 0.9625354 -0.15534694 0.3835277 0.27134556 0.35338235 0.2977277 0.19117978 -0.10983306 0.6789536 -0.19455904 0.4452128 0.055107776 -0.18775214 0.24103351 0.85353905 0.54008085 -0.2671465 -0.0011555912 0.06879339 0.20555629 -0.099161796 0.4233546 0.063035585 0.09790497 0.005565255 1.1321145 -0.05458493 0.17941822 -0.7230674 0.5847125 -0.13547413 0.2691457 -0.61182463 -0.31211635 0.43921307 -1.1412046 -0.0359956 -0.46647918 -0.5826655 -0.21383955 -0.38276628 0.009217795 -0.46225262 -0.2246602 -0.54022175 -0.40417993 0.40666702 0.23570374 -0.24906251 -0.024543608 0.2693831 0.029413251 -0.35381064 -0.24197128 0.27103233 -0.53706706 -0.36569095 0.14130273 -0.5712557 -0.7554445 0.023748761 -0.17913306 -0.62556005 -0.21252398 -0.19375668 0.27598006
country -0.77736056 -0.47540578 0.057412878 0.69964767 0.058201376 0.671745 -0.2986022 -0.021606874 -0.7432312 -0.6186323 -0.369242 0.3985713 0.091535896 -0.04666736 0.19998595 0.19049308 -0.4309814 -0.87716585 0.586829 -0.29962555 0.61544883 0.29586056 0.7768577 -0.124424726 0.99112916 0.09439945 -0.26148126 0.25100964 -0.23804814 0.5233592 -0.1851929 -0.40703255 0.12034696 -0.18094116 0.5812247 0.5375108 0.6677207 0.34903187 -0.24474205 0.13582256 0.19921948 -0.41133797 0.54404783 0.12581392 0.4075007 -0.1188688 0.09207493 0.24223606 0.8638652 0.29693198 0.2542698 -0.56802803 0.24759267 0.050567944 0.37820736 -0.58915395 -0.2638277 -0.43339974 -0.80681205 0.5885963 0.301611 -0.2613514 -0.24383858 1.0564984 0.332282 -0.5622247 0.43833837 -0.19717051 0.48194608 0.13838215 -0.25415152 0.2381019 -0.38848442 -0.44622418 0.26623335 -0.3527513 0.36776403 -0.37151083 0.47435606 -0.4863061 0.123523355 0.17578761 0.13866803 -0.3940718 0.038307864 -0.20445958 -0.46342847 -0.672912 0.12385394 -0.18030928 -0.16052696 -0.6530254 0.20628104 -0.299671 -0.255835 -0.048440214 -0.021568915 0.013715525 -0.12579076 -0.31749818
napoletana -0.24558114 0.20338836 -0.10575851 0.1587955 0.18643172 0.9821601 -0.6021812 0.48961997 -1.0870993 0.028187992 0.08506216 0.6034483 -0.30221444 0.110165104 -0.0018065617 -0.016572936 -0.2975312 -0.5237107 0.27849403 -0.44980946 0.13087565 -0.29093996 0.6221193 -0.13975865 0.6053457 0.14979172 -0.23305975 -0.34030482 -0.9802502 0.06671579 -0.7072063 -0.33364058 0.4780817 -0.05979178 0.8774998 0.10929504 -0.18227635 0.16204205 0.13387811 0.4280358 0.20130926 -0.22261643 0.8449444 -0.013064711 -0.11810644 0.2034333 0.061609223 0.3372135 0.901885 0.26805556 -0.74901825 -0.39463028 -0.22876473 0.042504203 0.032881267 0.25291502 -0.42624733 0.1261169 -0.20851758 0.8372113 -0.079733804 0.09278642 -0.56994677 0.60211205 -0.5007318 -0.24494708 -0.3155664 -0.25058886 0.6043139 -0.62396413 -0.61121583 -0.3181601 0.025607217 -0.2644206 -0.086467184 0.11403685 -0.1531647 -0.2569486 -0.14240602 -0.6370459 -0.21405408 0.41438174 0.042206183 0.22338097 0.07250713 -0.1810603 -0.72462666 -0.44691822 0.15918879 -0.24481167 -0.41520575 -0.30679277 0.07786456 -0.6957194 0.12520851 -0.40543985 -0.3279724 0.06540905 0.14152634 0.19254789
named 0.08326217 0.42118433 -0.33441254 0.8912129 -0.008167551 0.19948009 -0.098519266 -0.12107996 -0.42111427 -0.8768133 -0.365292 -0.2288671 0.45501414 0.10155484 0.34602687 -0.02506563 -0.5421902 -0.28058565 0.18087356 0.25829428 0.46882322 0.48868307 0.9986832 -0.08229748 0.7589412 0.33163694 -0.0779919 -0.072984435 0.14217275 0.29885504 -0.9820571 -0.013818753 0.005377641 -0.386416 0.9058769 -0.1287372 1.1902041 -0.5978169 0.13067238 0.008216569 0.076912835 -0.36499903 -0.03586622 -0.056837026 -0.7591348 0.45385098 -0.130064 -0.21159431 0.24179849 -0.11107326 -0.2862521 -0.07072862 0.13887708 -0.32076162 0.027770894 -0.1136519 -0.88362586 -0.0345441 0.08763558 0.16036414 0.78448784 0.15148409 -1.3493845 0.34981322 -0.5632848 -0.1872584 -0.34211916 -0.7609517 0.17735799 0.91240263 -0.34616446 -0.17885192 -1.1975262 0.19353469 0.35026312 -0.37169746 -0.22043453 0.21426292 -0.18174559 -0.80670434 0.059551656 -0.15136683 -0.44510978 -0.16824758 0.2983856 -0.224307 -0.5794823 -0.42302433 -0.63937646 0.40472677 -0.5788257 -0.13344808 0.34197327 -0.07115651 0.054787137 0.43200395 0.14615571 -0.09271089 0.2924734 -0.28501517
mild -0.021779474 -0.10790537 0.016603338 -0.18108302 0.49208948 -0.6401294 -0.4198167 0.099132486 -0.022730416 -0.5125597 0.82936394 -0.10588921 -0.028068969 -0.25251564 -0.32665166 -0.67094266 0.67322046 0.043982863 0.5893172 -0.19896884 0.26159534 -0.3552031 0.30222997 0.048129767 0.7630115 -0.52781624 0.5096608 -0.39263448 -0.9534763 0.037548445 0.6959629 -0.034165513 -0.34733957 -0.27451408 -0.2172885 -0.3167489 -0.09360896 -0.28481975 -0.17658612 0.33181116 0.14572807 -0.1974802 0.15433119 -0.027921068 0.07394014 0.12405378 0.5816249 0.0187574 0.8263412 0.19711022 -0.37620878 -0.34580564 0.024025986 0.10397902 -0.13111074 0.47585523 -0.39097023 -0.51856893 -0.62179977 1.2263604 0.5436032 0.21746802 -0.5341732 0.74938416 -0.009586486 -1.0051041 0.007904947 -0.47814652 -0.4641071 -0.7772434 -0.12081146 0.10943418 -0.74792135 -0.07586195 -0.34135965 0.20291306 -0.17839193 -0.09790886 -0.096615516 -0.18895514 0.17626801 0.45119634 -0.49789402 -0.17088331 0.14404011 -0.4649034 -0.661748 0.002163908 0.76856863 -0.19925481 -0.5780921 1.2462821 0.14486964 -0.41936442 0.04204604 -0.24090384 -0.011728534 -0.4449227 0.59396094 0.8906153
la -0.014933825 -0.14179847 -0.50209033 0.7166471 0.45794797 1.1817721 -0.25798774 0.8793486 -0.79700375 -0.019740501 -0.22176695 0.08730999 0.10169827 -0.12731764 0.3627921 -0.40066892 0.54178303 -0.35484663 0.48823833 0.26988363 0.36493862 0.32318887 0.8773832 0.6097203 0.5042463 -0.3314304 -0.22237171 0.0010155609 -0.581637 0.1338547 -0.54179806 -0.014273723 0.14435707 -0.023183772 1.2142435 -0.022980444 -0.19970918 -0.70401365 0.44062608 0.74524605 0.48971686 -0.56627774 0.2831084 -0.4256028 0.16693605 0.37593058 0.63740337 0.09433262 0.4682923 0.19959146 -0.08595337 -0.1901516 -0.15798934 -0.37774435 -0.14020063 0.12748836 -0.21730454 0.3940924 -0.3222224 0.88330936 -0.16854072 0.54453063 0.17150353 0.8896506 0.30388668 -0.2640998 -0.30672446 -1.0758606 0.5803223 -0.33784094 -0.6561468 0.10396488 -0.738144 -0.0065369387 -0.15188321 0.0786574 -0.14396025 0.010994033 0.083329454 -0.28556868 -0.2541233 1.0552139 -0.050828565 -0.21865052 -0.70601594 -0.49988595 -0.5864508 -0.5167734 -0.2825187 0.062383845 0.0023552673 0.4902499 -0.42556217 -0.6835476 0.09238908 -0.17202415 0.47013733 0.17763351 0.1852728 0.35583198
reine -0.051811635 0.15721294 -0.44660908 0.4842152 -0.05483984 0.76729536 -0.4511981 0.692472 -0.38928223 0.11038044 0.441671 0.45780584 -0.49010876 -0.028392432 0.4509542 -0.6391313 -0.19031572 -0.48505878 0.6618295 -0.2783432 0.6425891 0.34095427 0.6171533 0.5044434 0.64601827 -0.8510349 -0.3467464 -0.013189148 -1.213534 -0.24586608 -0.8669743 0.4867365 0.7645904 0.16112281 0.7940729 -0.04220648 0.42396295 -0.25093657 0.32969567 0.43553248 0.6757267 -0.36246434 0.8108821 0.14734185 -0.3236914 0.4985846 0.16512702 0.30749857 0.61412525 -0.04460462 -0.49750033 -0.82482934 0.24824518 -0.32922807 -0.08538218 -0.011943854 -0.69383353 0.32974976 0.3027162 1.3775308 -0.040323228 0.44039962 0.25288755 0.40620056 0.263395 -0.44723406 -0.49365526 -1.0036668 -0.17187326 -0.27146682 -0.1521837 -0.34629452 -0.1367134 0.33964935 0.21350269 0.24152242 -0.19926336 -0.27631477 0.130629 -0.603811 0.13134971 0.86694556 -0.3054338 -0.1293958 -0.6425625 -0.7141293 -0.33517846 -0.3989975 0.31469113 0.36794162 -0.24284437 0.63241106 0.35377863 -0.42220682 0.43404922 -0.6489511 0.24408507 0.47712907 0.29461572 0.232614
pollo -0.6449489 -0.7432929 0.16070174 0.6537664 0.35941795 1.0211022 -0.34742537 0.68238103 -0.2989685 -0.53911215 0.41855004 -0.435028 0.20965084 0.51362216 0.2936295 0.84387785 -0.67104024 -0.28962395 0.5729228 -0.29246452 0.2597628 -0.16312554 0.9146947 0.19728932 0.8353492 -0.3190812 -0.55800295 -0.40041217 -0.32727608 -0.34700942 -0.69078636 0.5712786 0.07751829 -0.6412399 -0.14342389 -0.20563214 0.6796743 0.17739846 0.18253481 0.17562237 -0.12604237 -0.31572464 0.40996408 0.26342058 0.61330277 -0.466937 0.86831063 0.68043804 0.31478333 0.3157783 -0.6858232 -0.75126845 0.21027026 0.5846667 -0.2398062 0.5062591 0.10100619 0.3458859 -0.2829501 1.0147477 0.46568823 -0.04861789 -0.14804348 1.0542295 -0.16900647 0.16528465 -0.035821892 -1.2775059 -0.5654855 -0.027149575 0.04968975 -0.32882497 -0.6701311 0.16145653 -0.27052283 -0.22437228 -0.23561908 -0.45304424 0.21856412 -0.36413482 -0.27693018 0.39895514 -0.8236784 0.15150708 0.2963424 -0.30320928 0.25402758 -0.49682328 -0.32576963 -0.42822114 0.29352906 0.07708881 -0.61287624 0.097334296 0.06343625 -0.19201617 0.0023613567 -0.0829291 0.32113987 0.2643096
ad -0.29515243 -0.41184607 -0.24390212 0.62184453 -0.3166018 1.173559 0.029417137 0.79980475 -0.27248168 -0.40796265 0.49203384 -0.0021566437 0.8007988 -0.19458248 0.013161747 0.4021916 -0.6861945 -0.1396563 0.52882105 -0.6279823 0.50679326 -0.1105028 1.103215 0.40095562 0.50654197 -0.027613787 -0.44209388 -0.24968374 -0.14256367 -0.041205496 -0.7634441 0.26640877 0.25418863 -1.0190309 0.19687158 -0.4535051 0.5440726 0.29876006 -0.48748276 0.74205804 0.06750725 -0.70570064 0.42185214 0.19824083 0.40264556 -0.030382339 0.51594484 0.5901894 0.19666807 -0.022128846 -0.8838353 -0.3115518 -0.3451013 0.3620507 0.35406497 0.81940573 -0.020200722 -0.15386939 -0.35358202 1.1554486 0.34437042 -0.64166343 -0.40706915 1.3452841 -0.39026734 -0.20599882 0.15910934 -1.2874787 -0.5379666 -0.8272542 -0.24435595 -0.45021495 -0.15997502 0.11865538 -0.21020545 -0.20026708 -0.48693824 -0.25187418 -0.17494263 -0.45691225 0.26241782 0.49586135 -0.27529192 0.42611003 0.74410146 0.03248749 0.5140886 -0.4410868 0.105957955 -0.44754028 0.30024529 0.47010198 -0.04367748 -0.31077027 -0.22393912 0.17566837 0.5191557 0.4144891 0.106434576 0.79415965
astra -0.61568123 -0.85189074 -0.011005891 1.1269811 0.07838995 0.82803464 -0.10450215 0.8402062 -0.26025188 -0.5534829 0.21686038 -0.47738606 0.4467751 0.33092877 0.59506685 0.102876484 -0.19753139 0.11227509 0.025249757 -0.626052 -0.107053295 0.12874463 1.222432 0.71366477 0.51052135 -0.30149552 -0.5591447 -0.18668891 -0.78418803 -0.5712929 -0.9521389 0.41086903 0.098858185 -1.051642 -0.100073345 0.14640929 0.25213775 0.6835538 0.3356124 0.77365285 0.056061793 -0.16199876 0.6390132 0.5218529 0.22836155 -0.3008588 0.69538665 1.1161509 0.781973 0.14739694 -1.1201005 -0.5142963 -0.012210673 0.4067578 -0.116006926 0.603408 -0.49879405 -0.113263845 -0.19426121 0.79898167 0.88609755 -0.7653583 -0.14119045 1.0862916 0.20221485 0.39847475 0.027827157 -1.0040601 -0.037615962 -0.6411917 -0.36406803 -0.46643296 -0.67587435 0.12790096 0.18403 -0.31954926 -0.60203356 -0.11899812 0.13216946 -0.6361631 0.23801953 0.5705356 -0.30870327 0.5372459 1.0175661 -0.18226694 -0.017811667 -0.09348318 -0.13410322 -0.63800895 0.31080523 0.79613787 -0.26172146 -0.034374755 0.13947965 0.14477146 -0.27366787 0.34661016 -0.25158486 0.92004895
seasons -0.63475615 0.13581884 -0.2719938 0.31081533 0.15641327 1.3041666 -0.4868979 0.5644637 -1.1138382 -0.24375923 0.5623502 0.8688352 0.019927539 0.059562027 0.025518222 0.09753118 0.20663694 -0.6570035 0.3402407 -0.25734222 -0.3418294 -0.10799068 0.48565817 0.20832697 0.78618443 -0.0570886 0.26669908 -0.63500184 -1.051681 0.1303175 -0.19463187 0.13568138 0.06416306 0.31051996 1.0942734 -0.50623167 0.2287714 -0.10162463 -0.0022480353 0.32042518 0.2937179 0.1519843 0.8899014 -0.09985887 0.13488093 0.03719045 0.4512366 0.3945038 0.9255235 -0.083727725 -0.5366954 -0.72262764 -0.43265522 0.22154336 0.7510719 0.4497761 -0.3649455 0.5281952 -0.5132093 0.90238595 0.66368175 0.5246876 -0.350274 1.1213859 -0.46090895 -0.3398139 -0.47450745 -0.6026687 0.3252382 -0.76080877 -0.17705283 -0.39222094 -0.42572457 -0.48474765 0.08577318 0.27763778 -0.5659035 0.05022182 0.16802359 -0.4744712 -0.34829322 0.7147702 -0.08947118 -0.15787613 -0.3524425 0.25325295 -0.8230974 0.048703443 0.081229895 0.14749572 -0.61891437 0.27771953 0.5003467 0.27616718 -0.02077353 -0.59947824 0.048496746 0.13111939 0.53835773 0.721344
SubClassOf 0.14026098 0.14784905 0.37308106 0.45507103 0.26629937 0.004545643 0.40992263 -0.31012562 0.034295242 0.40012142 -0.43217206 0.40323937 -0.030270765 0.22977193 -0.03292875 0.061900083 0.1235958 -0.28489837 0.14737485 -0.26051706 0.26332718 0.06803539 0.08192229 -0.027590968 0.64903635 -0.5359242 -0.12102496 -0.11775481 -0.5163702 -0.19546999 0.16794018 0.010016126 0.046412304 0.31370935 0.30196908 0.9120018 0.13148342 -1.1440312 -0.7445264 0.47563386 0.28438497 0.58273345 0.41817674 -0.100413226 0.28400743 -0.040896505 1.0069865 0.09052473 -0.072523564 -0.17332835 -0.46354252 0.071795955 0.04290542 0.36692134 -0.12210366 -0.6840157 -0.28359526 -0.1594726 -0.11525372 0.6386663 0.47649565 -0.76944405 -0.09873031 0.2959659 -0.16982754 -0.4830542 -0.34336 -0.7077635 0.16881749 -0.9557268 -0.07824155 -0.06558947 0.20909654 -0.14835192 0.025897069 -0.4176427 0.15723844 0.4997463 -0.656434 0.23921596 0.33515888 -0.76033825 -0.68825877 0.025598357 -0.3142097 -0.2354421 -0.021182517 0.14005795 0.15038718 -0.091930196 -0.3926371 0.4469137 -0.44665772 -0.45540333 0.07340042 -0.3667162 0.31458315 -0.18094659 0.0123809865 -0.3656724
vegetabletopping 0.06857965 0.13589375 -0.18257543 0.13430771 0.2815056 0.37653285 -0.6287763 0.3106946 -0.12001759 0.33339143 0.13737181 0.008650324 0.4025743 -0.29165155 0.37763795 0.49958518 0.11340837 -0.42910382 0.92125815 -0.7178335 -0.1370154 -0.38938573 0.20686355 0.27407208 0.75032324 -0.23901339 0.059255835 -0.111794196 -0.48128232 0.4667785 0.47956666 0.36884823 -0.16922694 -0.4848795 0.23053272 -0.166852 0.2690192 -0.452132 0.10833318 0.71720827 0.09116137 -0.24655895 0.0429934 -0.29329395 -0.037433166 0.4954089 0.116325624 -0.13770065 0.4236747 0.674988 0.10612218 -0.44365385 -0.44969565 0.23558936 0.49788782 0.60561436 -0.06200046 0.21525331 0.013897163 0.8693486 0.4212839 -0.10820933 -0.04587271 0.4328461 -0.4527689 0.36991763 -0.21215376 -0.38655984 -0.09881254 -1.0217332 0.23443203 -0.17940305 -1.2223988 0.45381793 0.06676403 0.112780005 -0.724176 -0.020205393 -0.52160794 -1.1446117 0.023682063 0.7115741 -0.5212857 0.12027613 0.08715903 0.0045078117 -1.493532 -0.84717065 0.52040654 -0.3276722 -0.36237192 1.149927 -0.20456122 -0.38857183 0.23852631 -0.18572041 -0.2722934 0.01963153 0.31116983 0.5347774
or -0.42428938 0.114233546 -0.2608143 0.30750784 0.2943352 -0.11089626 0.09096827 -0.34847075 0.39061606 -0.12520516 0.35842833 0.16619913 0.120460175 -0.33432204 0.038647685 0.7163276 0.6777983 -0.23276076 0.58571625 -0.055580728 -0.32815942 -1.0112493 -0.30385712 0.49354067 0.6699958 0.11776741 0.087329805 -0.311636 -0.15447053 -0.618853 0.14996968 0.102890894 -0.0064311414 0.16992885 0.7721989 0.2750836 0.4435748 -1.0223278 -1.2164899 0.8642225 0.76834863 0.17571817 0.28851885 0.111800246 0.18655542 -0.7285258 0.7517468 0.61536086 0.5781549 0.059608515 0.351237 0.30043384 -0.43661025 0.109528504 -0.29635364 -0.02762347 -0.16864125 0.3000952 -0.26274836 0.7831179 0.39622223 -0.40664047 -0.39022595 0.8105323 -0.25399855 -0.76359683 -0.40602562 -0.6295387 0.46113974 -0.11731948 -0.5085691 0.07205735 0.035148 -0.008211036 0.23268145 -0.7502808 0.14461264 0.08109887 -0.173715 -0.38167846 -0.21493162 0.217096 -0.6929976 -0.2802257 -0.08556389 -0.3260211 0.22301474 -0.16258743 0.21218278 -0.36365587 -0.5644126 0.97508353 0.25035363 -0.41838402 0.24578525 -0.74935234 -0.6413054 0.7283096 0.13301817 -0.11530052
onion 0.0010471656 -0.060514923 0.08576493 0.5587064 -0.11412566 0.11522265 0.16676448 0.14804207 -0.34588256 -0.7692939 -0.5017537 0.12844226 0.44219953 0.3576698 -0.032515578 0.42211172 -0.41035742 -0.22122256 -0.15202709 -0.71882194 0.54346174 0.19739431 0.88754106 -0.18348749 0.044538647 -0.26020455 -0.4139162 -0.36656284 -0.04186585 -0.14841928 -0.35586447 0.33584478 0.3652188 -0.67599934 0.3784638 -0.42757717 -0.15976723 -0.099750236 0.004741764 0.19916639 0.05870841 -0.5778066 0.54213476 0.19302143 -0.028183876 -0.890104 0.86333525 0.3990175 0.6036366 -0.23182043 -0.27273214 -0.5312776 -0.03365579 0.5943546 -0.39565197 -0.015730351 -0.39982685 -0.021523265 0.054730702 0.172208 0.061091166 -0.5606629 -0.3145861 0.677221 -0.3760703 0.049183995 -0.25832853 -0.9329366 -0.21596019 0.07941606 -0.5636054 0.09850229 -0.4218625 -0.29203954 -0.4536696 -0.60388345 -0.2414573 -0.071356416 -0.89540386 -0.893044 0.18677886 0.47041294 -0.081867486 0.59013057 0.5067486 -0.136852 -0.3980733 -1.0183545 -0.22586326 -0.5961998 0.22459857 0.68582195 -0.24565573 0.20287918 0.56499326 -0.2021831 0.03274598 0.47363225 -0.10160724 -0.28411242
caprina 0.35210058 -0.6791394 -0.6191375 0.4044403 -0.2022015 0.107119784 -0.16315709 0.56226087 0.22795527 -0.37346292 0.21491568 0.19836354 -0.08508286 -0.10373721 0.4108142 -0.37115204 0.14820428 0.26096183 -0.0015533268 0.2309818 -0.15367237 0.23470587 0.8949704 -0.16842309 0.3361191 -0.4999224 0.23745346 0.1390959 -1.3547095 0.18941799 -0.43588352 -0.4425856 0.22897382 -0.22121291 0.3063079 0.20022726 0.21878944 -0.12912911 0.3151169 0.23438276 0.6813744 0.17069192 0.5850979 -0.041883793 0.01663664 -0.7290731 0.32586813 0.7781374 0.9494449 -0.5341648 -0.7177846 -0.18834406 -0.12337468 0.14708616 0.13972838 0.09411539 -0.57255 0.3537958 0.054326326 0.84716934 0.5150631 0.36165905 -0.46361127 0.49295717 -0.1796163 -0.53238535 0.27551222 -0.6458419 0.086554006 -0.62550443 -0.3603444 -0.4986914 0.06198372 -0.48534086 0.25091544 -0.24452116 0.39183128 -0.689904 -0.2132533 -0.19747454 0.2828548 0.68876505 0.35519004 0.1335384 -0.28501517 0.018045545 -0.18051443 -0.17390463 -0.34695965 -0.7967454 -0.6998385 0.5474752 -0.5545287 -0.333879 -0.05083648 0.2102382 -0.2740687 0.22954737 0.0925037 0.6092486
cheese 0.20287772 -0.38841996 -0.51608664 0.06113437 -0.45914742 -0.048344873 0.21442951 0.67095774 0.0754184 -0.19714017 0.11031011 0.13391548 0.057077922 -0.56085473 0.33811367 -0.53346765 -0.037164155 -0.33082417 0.19027378 -0.04582227 -0.5436181 -0.2511674 0.31458652 -0.17054778 1.0721933 -0.35966823 0.81585026 0.26345554 -0.7616686 0.16349474 0.16995968 -0.20489092 -0.7054223 -0.090682656 0.4083831 -0.5011525 0.2195566 -0.2178576 0.5114732 -0.29065725 0.13837087 0.06794972 -0.14592762 0.25534624 -0.3629568 -0.3269211 -0.5161859 0.54855376 1.3052891 -0.07577682 -0.5175442 0.12336258 -0.072690256 0.33139536 0.41477218 0.1902023 -0.5497525 0.4241389 0.14907165 0.7195528 0.34935564 0.27516603 -0.29582646 0.5893402 -0.24549371 -0.2931659 0.04414618 -0.4677637 -0.24805412 -1.1489835 -0.3764385 -0.5238594 -0.47248268 -0.5695065 0.40111092 -0.23524547 0.275074 -0.31358624 0.022421718 -0.5098176 0.12517893 0.26260436 0.055162814 0.36880887 -0.2459751 -0.076848954 -0.6442493 -0.72983867 -0.24996985 -0.59759945 -1.215386 0.8852958 0.05579289 -0.08833116 -0.412749 -0.4748735 0.16425094 0.28051445 0.3964127 -0.21758102
http://www.co-ode.org/ontologies/pizza/pizza.owl#NamedPizza 0.102267824 0.11235474 -0.3082656 0.80609614 0.06846258 0.36233592 -0.21277626 -0.31003734 -0.5488208 -0.5954647 -0.6130437 0.16973165 -0.12353387 0.31363165 0.059333954 -0.3520006 -0.3080451 -0.31720373 -0.08981206 0.10219876 0.5110464 0.45411155 0.5067934 0.112809695 0.65105104 0.24666354 -0.2971045 0.4754503 -0.10678312 0.139732 -0.916486 0.006132003 0.39562473 -0.273686 0.83774537 0.11634466 1.1957296 -0.5756156 0.06693685 -0.24992275 0.39502802 -0.1735051 -0.07456157 -0.046518 -0.64139843 0.76302034 -0.089839764 -0.16273953 0.010037515 -0.110384084 -0.6276303 -0.42666924 0.34120426 -0.059335537 -0.3177252 0.08134024 -0.58354664 -0.19835295 -0.1028327 0.11503902 0.25428593 -0.02073819 -1.3201575 -0.36048836 -0.37477764 -0.78592074 -0.35353485 -0.89236075 0.23265697 0.47635365 -0.13496721 -0.003057811 -1.1563846 0.18863878 0.28248864 -0.6636065 -0.11650289 -0.03564622 -0.5096005 -0.590328 0.29699844 -0.2770929 -0.46324024 0.18722825 0.23000854 -0.17073338 -0.37584764 -0.52246743 -0.48076814 0.592978 -0.6069966 -0.17101657 -0.123764545 -0.20323701 -0.23467122 0.40319717 0.33845407 0.30609515 0.16419329 -0.420454
origin -1.0141362 0.21599081 0.23148757 -0.017656855 0.38250145 0.5755361 -0.42359367 -0.14744966 -0.4154719 -0.46418613 -0.09842818 0.17539124 0.5305096 -0.24217954 0.0896537 0.15347704 -0.0298506 -1.1268163 0.5453012 -0.17652722 0.1796846 -0.21507491 0.76385415 0.16443866 1.2214866 -0.19989906 -0.5297012 0.5800427 0.2503864 0.14599934 -0.5795752 -0.20539491 -0.055908836 0.041381985 0.70430714 -0.014171001 0.31865907 0.1277575 -0.47748557 0.46387622 0.1532788 -0.61665004 0.6575307 0.2481195 -0.0062746103 -0.12328531 0.5095081 0.95258397 0.895406 -0.09623908 -0.4788368 -0.37023005 0.34672913 0.12345516 0.17382443 -0.11294565 -0.647044 0.048423976 -0.014922676 0.77723247 0.4832886 -0.06370921 -0.42505085 0.86127853 -0.07362453 -0.1319195 0.033449885 -0.44703874 0.64701027 -0.0008360242 -0.1831987 0.11022432 0.052156825 -0.66203225 -0.19648258 -0.43855825 0.38470355 -0.3353125 0.4045043 -0.15939757 -0.033514965 0.35966095 -0.6259177 -0.095662564 -0.40332943 0.36773428 -0.6385246 -0.60748136 -0.19223216 -0.22914399 0.27610797 -0.32080284 -0.4546555 -0.34842896 -0.19006626 0.17949343 0.25063783 0.23012097 -0.021182653 -0.43958944
vegetarian 0.5205234 -0.10819348 -0.5873173 -0.14701119 -0.55486083 1.1196188 0.37495822 0.25211188 -0.15108022 -0.0244899 -0.087831005 0.012673284 0.01708721 -0.41118327 0.23242073 0.39423937 -0.09960393 -0.09317529 -0.6218401 0.5268768 -0.11267846 -0.5657341 0.030596338 -0.029217774 0.6120943 -0.02475729 -0.07424802 -0.09756787 -0.37117484 -0.24991776 0.06411513 0.08899271 -0.7364016 -0.4150927 -0.095628664 0.26605392 0.5041475 -0.23277313 0.5808446 0.14520778 0.80641294 -0.6179195 0.3733153 -0.17320408 0.5128753 -0.50850487 0.21991211 0.37312615 -0.24747904 -0.44334477 0.30721948 -0.6010935 -0.21196857 0.27883345 0.0054779304 0.20392312 -0.25983685 0.24128342 0.20048766 1.0269892 -0.13894354 0.17674144 -0.33349028 1.1213349 -0.11142912 -0.30914232 0.27952424 -1.0537531 -0.60252964 -0.40263104 -0.5443462 0.031042919 -0.42792743 0.31125963 0.30149114 -0.5188302 -0.63612044 0.11733938 -0.43507126 -0.566255 -0.3073777 -0.1462132 0.05223824 -0.52073777 0.09697527 0.060658008 -1.010759 -0.9378886 -0.35122684 0.19891346 -0.17770977 0.5124254 -0.40412614 0.66436493 -0.5579099 0.02072592 -0.48868936 0.38318077 -0.41649264 -0.2676505
ham -0.22069292 0.1980715 -0.63278025 0.8171419 0.113554016 0.16679241 0.075180165 -0.26118845 -0.22593805 -0.21923512 0.06539238 -0.36889452 0.010485719 -0.41852808 0.13390289 -0.41057217 -0.15932763 -0.72316235 0.1268096 0.0008949784 0.53472954 0.352435 0.09784412 0.25671655 0.4238627 -0.6495763 -0.33997217 -0.02590121 -0.5644945 -0.29332656 -0.7664522 0.098604426 0.042095497 -0.28076714 0.7907264 -0.12232694 0.28697327 -1.0134009 0.083910614 0.40153846 0.5402986 -0.30725163 -0.021490648 0.11807704 -0.31724957 0.09148479 0.30455393 0.5235299 0.2048468 0.06300923 0.19404846 -0.57399905 -0.32250652 -0.29979038 -0.10882039 -0.32308635 -0.14837565 -0.21223086 -0.30816448 1.1060191 0.38178247 0.516614 0.21201769 0.27033523 0.25435778 -0.009959244 -0.36323985 -0.83056545 -0.29136184 0.040591225 -0.42225984 -0.34436598 -0.40198332 -0.05819174 -0.5399162 -0.15572359 -0.40218621 -0.4774529 0.13452794 -0.4337812 -0.17669652 -0.00019942144 -0.10189252 -0.5400218 -0.75934064 -0.67542666 -0.45792747 -0.56978273 0.20874995 -0.32546598 0.019428032 0.45825914 -0.0489119 -0.27929017 -0.06410331 -0.88991123 0.6811506 0.1485634 0.55518275 0.1404266
cheesetopping 0.1874836 -0.40709335 -0.6677016 0.119509295 -0.43003574 0.35957038 0.18388103 0.627092 -0.026734935 -0.07478658 0.42707762 0.22428615 -0.10336654 -0.50223327 0.073171206 -0.509572 0.29241458 -0.31860852 0.17500724 -0.45267415 -0.61103755 -0.55802065 -0.17525144 -0.26095626 0.8492276 -0.016428802 0.84010047 0.11798953 -0.6703478 -0.09852304 0.32783493 -0.18941689 -0.41846302 -0.10795862 0.26274347 -0.7469126 0.0038642753 0.040780425 0.3840312 -0.16883706 0.15008585 0.1695551 0.021257298 0.2761625 -0.3784153 -0.23074788 -0.6064211 0.37092206 0.93025553 0.14507814 -0.19343837 -0.06389098 0.09483677 0.39578745 0.5236121 0.087086186 -0.16666369 0.31257468 0.039056093 0.80307287 -0.29999468 0.30554357 -0.4878193 0.5300616 -0.31798026 -0.2864663 -0.00171055 -0.37561223 -0.18214376 -1.008914 -0.34700656 -0.65113306 -0.3624383 -0.4111986 0.55132496 -0.11287796 -0.096647926 -0.21129906 0.14944695 -0.58343893 0.062289834 0.16731857 -0.2555483 0.22755785 -0.22461465 0.021503897 -0.5689251 -0.79241407 -0.5546342 -0.55532825 -1.3536122 0.82634735 0.24549255 -0.05414606 -0.34905934 -0.4105188 0.029251106 0.052205063 0.073852316 -0.07397421
http://www.w3.org/2004/02/skos/core#altLabel -0.045524593 -0.035800945 0.23540616 0.7818405 0.4160453 0.6595084 0.04093565 -0.3044351 -0.3726256 -0.09445355 -0.677325 0.88777363 0.30171892 0.26785737 0.4411538 -0.095375806 -0.19002403 -0.27928612 0.22137843 -0.49900857 -0.19959249 -0.3124464 0.38028276 0.51678264 1.1965144 -0.037828103 -0.32797796 0.3272021 0.0063858666 -0.17217746 -0.45352355 0.17627603 -0.016158134 -0.15924194 0.92711127 0.47452098 0.5800743 -0.5923145 -0.1612904 0.20215492 -0.030251184 0.34760627 -0.23143095 -0.35007927 -0.15301222 0.71089154 0.6271122 0.059047114 0.5738891 -0.020126123 -0.34543395 -0.14547172 0.06036132 0.24679704 -0.07596279 -0.06558422 -0.51811683 -0.37790364 -0.061186578 0.26262063 0.46739697 -0.15625614 -0.69120246 -0.07209016 -0.061776727 -0.27760404 -0.28036967 -0.5032333 0.07827819 -0.023275018 0.26461774 -0.052759297 -0.49777293 -0.028455941 0.08121764 -0.29759642 0.09701089 -0.2717445 -0.48577586 -0.11959095 0.06297035 -0.47616267 -0.22656937 0.56843114 -0.055027645 0.24376369 0.35085127 -0.15303753 -0.07490611 0.38752916 -0.5793508 0.2760912 -0.2005442 -0.22060274 0.31994697 0.12060654 0.22508995 0.22459963 0.007903192 -0.35521507
olivetopping -0.48240256 0.45337766 -0.21817996 -0.11177544 0.11120159 0.451115 0.036924746 0.1535607 -1.0141811 -0.3024189 0.02819905 0.19273257 -0.1427775 -0.123395644 -0.016881714 -0.2684644 -0.44714496 -0.90788764 -0.04857446 -0.31249535 0.29072905 0.47766575 0.80283207 -0.0061378023 0.8730998 -0.6790476 -0.11331017 -0.1664486 -0.2734024 0.16092148 -0.8376298 0.099993534 -0.30850756 -0.02965767 1.1808485 -0.26291347 0.7393139 -0.742453 -0.109114915 0.043515097 0.44727603 -0.71694034 0.099664025 -0.1538889 0.060592618 0.056056857 0.10859991 0.2771004 0.987776 -0.2242385 -0.40212977 -0.43913266 0.09145469 0.4499466 -0.35012138 -0.083632976 -0.24663739 0.24772778 0.2476578 0.627957 0.38325453 0.3479767 -0.327551 0.739244 -0.14831461 -0.08910438 -0.43026766 -0.7116789 0.13293575 -0.55267346 -0.5469366 -0.30323774 -1.0186471 0.06737787 -0.31075543 -0.16201843 -0.31512633 -0.14108531 -0.29643753 -0.60824597 0.22101192 0.54399884 0.051272385 0.11898535 -0.08718746 -0.40977922 -1.1234746 -0.6245145 0.26200244 -0.08965055 0.37248987 -0.13353534 0.2905137 0.10583177 -0.08880011 -0.21563944 0.5608876 0.31425902 0.1864404 -0.1895613
fourseasons -0.2859173 -0.017541436 -0.35726276 0.36756903 0.44992954 1.0643219 -0.41250822 0.35892066 -1.0017562 0.059072964 0.19863716 1.0118515 -0.19602117 0.1899231 0.018366063 -0.4212932 0.28158626 -0.4367748 0.14993545 0.04464551 0.0693941 -0.15383959 0.21512865 0.14593077 0.35378295 -0.09752413 0.21113738 -0.45021194 -1.0754647 0.110924795 -0.2240916 -0.03742048 0.44550714 0.36555728 1.1731863 -0.107540086 -0.06835549 0.07022812 0.21387704 0.31871533 0.38039806 -0.14918557 0.7310581 -0.05640182 0.20648053 0.2408204 0.20989682 0.30803573 0.63290906 -0.24947748 -0.4877713 -0.528769 -0.04478317 -0.05787939 0.5254864 0.3462984 -0.17106624 0.31692138 -0.36291128 0.9254482 0.3588094 0.37579957 -0.13664956 0.49774432 -0.48592517 -0.27555233 -0.23609413 -0.65273046 0.55265456 -0.6076579 -0.15836635 -0.056828044 -0.3027112 -0.4410543 -0.115145616 0.2811834 -0.16913003 0.13442646 0.115146354 -0.5690823 -0.34000376 0.3500178 -0.2617319 -0.17706352 -0.33679837 0.10481822 -0.6354706 -0.34582314 0.24517922 0.08218502 -0.41171563 0.30128866 0.07353452 -0.5301259 0.012619495 -0.5718726 -0.31444585 0.323816 0.6871456 0.44336808
parmese 0.052501045 -0.4026926 -0.46918973 0.5226529 -0.14527214 0.702595 -0.21668428 0.16400564 0.0092371395 -0.16652414 0.5638217 -0.18314749 0.085327186 -0.36964053 0.20353149 -0.14588559 0.41443875 -0.3310667 0.6359112 -0.4842747 0.10015111 -0.10805814 1.0235595 0.29327813 0.5120544 -0.1593003 -0.057191078 0.21506512 -0.5817517 -0.07660583 -0.89857215 0.2631985 0.11376925 -0.1299121 0.19731633 -0.30501536 0.6306973 -0.5039946 -0.09388285 0.53399813 0.675014 0.006842302 0.27885863 -0.398103 0.103386395 0.20175485 0.02581158 0.36740237 0.9205505 0.25172305 0.021875089 -0.39480892 -0.17065428 -0.4197193 0.26014873 0.11097015 -0.36641082 0.16849546 0.3412079 1.4364293 -0.20931998 0.72168726 -0.43553102 0.7312808 0.5468966 0.26984388 -0.5630379 -0.6815513 -0.18892871 -1.2579359 -0.33893728 -0.33381918 -0.17033307 -0.31468418 0.14008944 0.23948772 -0.18758819 -0.74868494 0.3623924 -0.33135808 0.13791578 0.26108772 -0.21470948 -0.2367027 -0.30970567 -0.47900414 -0.31847325 -0.53787994 -0.092520714 -0.497836 -0.37814435 0.6542338 -0.35793424 -0.35992134 0.16424704 0.12930894 0.28612164 -0.6072255 -0.285963 0.35275757
polloadastra -0.19536099 -0.7612467 -0.16421218 0.85463285 -0.09600583 0.7111178 -0.1745944 0.61358976 -0.10876817 -0.29686302 0.33331454 0.023723772 0.30338886 0.4687822 0.1265477 0.11240598 -0.2312023 0.05302772 0.19355755 -0.48353425 0.114346586 -0.24982165 0.7095092 0.34408996 0.24335352 -0.3239207 -0.43893045 -0.23424706 -0.64414084 -0.621699 -0.37747413 0.48152453 0.33002692 -0.90900445 0.060057748 -0.17195776 0.10210329 0.46885878 0.300298 0.4542408 0.13523826 -0.31205228 0.55063826 0.11275617 0.30256617 -0.33255872 0.6699066 0.7704434 0.08103181 0.16529004 -0.90039325 -0.59125495 0.078375645 0.50090253 -0.18671978 0.5389325 0.07005693 0.0013292687 -0.30776995 0.84851 0.08758394 -0.6608014 0.041669115 0.52250963 -0.18703134 -0.10596794 0.0010514177 -1.197349 -0.29515705 -0.7119835 -0.053183187 -0.16342331 -0.092173845 0.04079695 -0.21392678 -0.32968912 -0.39652598 -0.45966777 -0.05593196 -0.19960986 -0.016707523 0.11632524 -0.55416214 0.35542887 0.55656856 -0.048164546 0.51491493 -0.26822433 0.040371377 -0.53454393 -0.09129595 0.64341885 -0.6582907 -0.20501949 -0.05370893 -0.14702839 -0.10587104 0.25320634 0.12783112 0.60322416
sloppy 0.07857158 -0.50592834 0.38850573 0.75637454 0.065581925 0.4241459 -0.17052327 0.3210083 0.018769832 -0.17456898 -0.24863863 0.042158186 0.45050424 0.105337314 -0.110451564 0.7572784 0.20928086 -0.10213491 0.47842583 -0.5606233 0.28025776 0.42379755 0.8422289 0.5508204 0.4802637 0.43725762 -0.30936226 0.51402557 -0.6941941 0.40436485 -0.058808662 0.4811477 0.6065677 -0.11516774 0.6905962 -0.45390934 0.12613685 0.13288954 0.20221537 0.69903207 0.50566447 0.026350781 0.97415847 0.49969235 0.3167191 -0.5516417 0.607014 0.62020385 0.8546125 -0.010166283 0.11687542 -0.72076064 0.010587096 -0.19810876 0.9824388 -0.09606827 -0.75418717 0.50155944 0.52589905 0.7909978 0.44767937 -0.30063644 0.32936716 0.32796487 -0.6820396 -0.051301807 -0.68024224 -1.2117227 -0.21192747 -0.2534182 -0.3163933 0.09079139 -0.3993725 -0.68706685 0.3827597 0.07175021 0.03946005 -0.34082523 -0.3091592 -0.68831813 -0.07737913 0.7497777 -0.119919285 0.20372823 0.12518673 0.035009503 -0.59380615 -0.9275268 -0.5243839 -0.36813894 -0.24130961 0.44175997 -0.31990007 -0.1414663 0.3899202 0.5118684 -0.29503056 -0.26524413 -0.48315853 0.5258244
giuseppe -0.0715875 -0.19283788 0.10725708 0.7108652 -0.17982812 0.6726639 -0.6230417 0.19970249 -0.4984133 -0.39903954 -0.25504968 0.26535478 0.659193 -0.018976448 0.17136255 0.9140765 0.09911474 0.13447107 0.51405394 -0.3245672 0.42938888 0.30799133 0.9813312 0.36754203 0.15942958 0.36493728 0.27767137 -0.19356452 -0.9734184 0.5638215 -0.6720847 0.69362843 0.6239203 0.09990763 -0.13142812 -0.10821325 0.4493166 0.5441505 -0.2833868 0.40787932 0.089999884 0.3749139 1.3793917 -0.34822547 -0.17400847 -0.22687201 1.0071687 0.5362896 0.56876314 -0.22850087 -0.29861906 -0.78880316 -0.51989347 0.42643213 0.5707972 -0.00047483286 -0.4289942 0.53147584 -0.12294908 0.6577787 -0.070022136 0.25528014 -0.16754602 1.1488754 -0.2618366 -0.07655149 -0.21850109 -1.0707988 -0.38054672 -0.2689541 0.14661525 0.117371 0.010427454 -0.4648864 -0.033821568 0.115849234 0.07937816 0.30001915 -0.25476938 -0.86030406 -0.030034054 0.61310464 -0.6226407 0.018331116 -0.24803431 -0.003502431 -0.58230275 -1.1882849 -0.49449024 -0.6596275 -0.4524569 1.0669439 -0.1446809 0.123306096 0.36625144 0.5550271 -0.21871881 0.41689083 -0.650861 0.17648521
garlic -0.18954223 0.03493963 -0.44396338 0.40351653 0.08636149 0.31451553 0.31108335 -0.29857278 -0.71403795 -0.16485177 -0.110061675 -0.45034167 0.08973793 -0.102469884 -0.40893388 0.09306264 -0.5494431 -0.34166473 -0.26040003 0.018788189 0.18734075 -0.05433367 0.7438405 0.06470508 0.30407786 -0.06768393 -0.37607157 -0.42776975 -0.13633004 -0.34472603 -0.92591906 0.22794224 0.0024688956 -0.6857836 0.6237129 0.2331715 0.7482074 -0.18266027 -0.05377106 0.2765104 0.48810604 -0.101325855 0.25961584 0.3949999 0.23781832 -0.43416217 0.5620455 0.36774936 0.2514086 0.120931454 -0.5037539 0.24100375 -0.03776884 0.66691977 -0.38684043 0.18483701 -0.039027665 -0.1456105 0.18780799 0.65178084 0.4111996 -0.16333023 -0.41196617 0.5828241 -0.28493273 0.02295884 -0.50296956 -0.5286023 -0.14009236 -0.10996068 -0.67442876 -0.27892134 -0.68031186 0.035205882 -0.8101514 -0.27861512 -0.4067019 0.35846078 -0.7705176 -0.46314546 0.24079478 -0.13885081 0.058270775 0.40514234 0.55339396 -0.7513714 -0.44633865 -0.36170316 0.19929215 -0.404312 0.2603124 -0.04261625 -0.5292219 -0.34940895 -0.20553643 -0.31485188 0.17895922 0.54241204 0.14753993 0.19338319
carlo 0.23756362 -0.54132617 0.27891067 -0.17838569 0.48598233 0.7773031 0.008030557 0.034477763 -0.066994034 -0.5056916 0.5671654 -0.43483588 0.20537856 -0.56132823 0.32442206 0.2552719 0.54127 0.37225056 0.4362942 -0.8594921 0.078178965 -0.27063042 1.0958321 0.5067907 0.6348558 0.22281937 -0.2065056 0.35816103 -0.77022874 0.11719157 -0.63930017 0.29216528 0.058898933 -0.53565913 0.20163524 -0.6521507 0.7700211 0.23472644 -0.109869406 0.42079008 0.67275465 -0.34456936 1.0310872 -0.2774513 0.64642143 -0.14886647 -0.22669682 0.22376448 1.4267868 0.2490296 -0.13502322 -0.19550723 0.09278535 0.14694211 0.92003936 0.15200274 -0.78488153 0.20167112 0.46518537 0.91847265 0.03722587 0.29011956 -1.1135979 0.68559664 0.34088522 -0.041479904 0.15677558 -0.85626864 -0.28392392 -1.3619248 0.020522805 -0.3201108 -0.3965124 -0.49470165 0.031406116 0.3741863 0.01598902 0.20625131 -0.049596194 -0.8613304 0.31174064 -0.29192147 -0.63670707 0.03519162 0.09499634 -0.5259301 -0.12688243 -0.6230471 -0.5903349 -0.16672273 -0.06576702 0.32447532 -0.33208284 -0.30426583 0.11775203 -0.54970914 -0.04282257 -0.64955324 -0.5558038 0.27576956
prince 0.105668746 -0.07886503 -0.5580879 0.01987293 0.23671898 1.0642327 0.40104052 0.25324744 -0.21545772 -0.71854514 0.10499002 -0.5678889 0.29035324 -0.34432983 -0.3311168 0.46459156 0.5682019 -0.053264163 0.6469355 -0.3167192 0.37328768 0.16571894 0.5762465 0.48416778 0.9778627 0.23734443 -0.0331659 0.31247562 -0.47712442 0.38680133 -0.27609655 0.7967739 0.0379975 -0.20419979 0.24023277 -0.1464763 0.67648923 0.52277863 0.15500806 0.3619015 0.019654445 -0.1797871 0.47210476 -0.41256672 0.49517342 0.27618074 -0.23837163 0.22925206 1.100454 0.3802484 -0.14364117 -0.019568812 0.2521496 0.6347238 0.30441225 -0.10285002 -0.3387582 0.65610605 -0.017778207 1.2590134 0.39724874 0.59049964 -0.74987966 1.135247 -0.13114724 0.19644098 -0.03953574 -0.63392186 0.34860247 -1.4399495 -0.11316132 0.23314132 -0.5989216 -0.3999341 -0.0131220305 0.2904243 0.2925396 0.3765819 0.24016911 -0.71438307 0.20649539 -0.1391574 -0.33597195 -0.13465707 -0.36545563 0.11202833 -0.09575242 -0.4937123 -0.63895035 -0.8989664 -0.48541826 0.68094367 -0.4870296 -0.36476186 0.39866653 0.24050143 0.2495075 -0.38237914 -0.16347064 0.1991623
rosa 0.34546503 -0.65205824 -0.09766143 0.076359175 -0.08378486 0.3890615 -0.33890116 0.4507543 -0.21860708 -0.103184775 0.20869853 0.29624483 -0.16014917 -0.11147031 0.14987102 -0.65201986 0.016500702 -0.09995719 0.18933976 -0.14714465 -0.13237868 0.16256191 0.4877273 -0.011489255 0.7793392 -0.49197385 0.2819076 0.23179545 -0.8126734 0.29979143 -0.47809148 -0.24123089 0.3595994 -0.23745172 0.2979648 -0.4062483 0.31037226 0.29426444 0.22058147 0.040180866 0.50212485 0.35938746 0.4521866 0.35191104 -0.30475095 -0.0881345 -0.045747183 0.39611143 0.6884093 0.19514607 -0.653468 -0.07209674 0.22409873 0.53459454 0.48947522 -0.32427186 -0.49783227 0.1855624 -0.21625473 1.1264206 0.0394334 0.15218128 -0.73464566 0.40505683 -0.39471725 -0.36337003 -0.17987299 -0.46753523 0.14618894 -1.0873157 -0.114825085 -0.2577929 -0.35775173 -0.33094013 0.1982265 -0.1545457 0.34033698 -0.48354706 -0.23954828 -0.06514718 0.013269393 0.30517113 0.19302231 0.27394307 -0.07578107 -0.38066235 -0.15713085 -0.50377893 -0.68452615 -0.28637683 -0.81441593 0.09081076 -0.08897637 -0.29746008 -0.17897058 0.39691815 -0.003906679 0.027983323 -0.3997291 0.03623063
parmezan -0.22552823 -0.25874963 -0.8842681 0.1863269 0.42475045 0.09278936 0.56297153 -0.42948848 -0.4284062 -0.47360626 0.040175747 -0.52813643 -0.10710809 -0.63301593 -0.0034400285 -0.14328974 -0.039327182 -0.23768333 0.07664871 -0.24767096 0.14686272 -0.23302197 0.64618313 -0.018144766 0.63874197 -0.25797832 -0.2865629 0.09288779 -0.21942553 -0.018360313 -0.71466297 -0.11496006 -0.25377455 -0.16835319 0.51851296 -0.07403262 0.51906985 -0.2907167 0.1753572 0.24952482 0.39014012 -0.29902193 0.32378465 -0.10735631 0.027703032 -0.100155964 -0.31453425 0.045870975 1.1548629 0.45081487 0.2750162 0.13057308 0.20039476 -0.1280273 -0.251759 -0.24933194 0.08878157 0.1934741 0.26730892 0.80254513 0.40318713 0.50348186 -0.9118186 0.3837696 0.0011454625 -0.047840975 -0.11369133 -0.48994964 -0.041102786 -0.84658265 -0.71523494 -0.2057596 -0.5660771 -0.21013044 -0.46151322 -0.3669544 0.23071805 0.010815469 -0.44858244 -0.7222044 0.1389966 -0.24211015 0.104710735 -0.14826806 -0.18164438 -0.5642491 -0.20874724 -0.6112029 -0.43746862 -0.22424605 -0.08570153 0.3540579 -0.43117863 -0.4970532 0.37428677 -0.6727219 0.006714189 -0.23660617 0.112171926 -0.24916728
http://www.co-ode.org/ontologies/pizza/pizza.owl#VegetableTopping 0.293804 -0.35197094 -0.6347678 0.6052451 0.5427212 0.4002933 -0.091847084 0.08416727 -0.021889051 0.42517352 -0.023865338 -0.048412334 0.011275723 0.05375547 -0.1361102 0.25578472 0.4589205 -0.22387293 0.49616587 -1.0330585 0.18250707 -0.5552828 0.18854257 0.30152258 1.0015199 -0.044862807 -0.21638998 0.047509205 -0.51594 0.17251533 0.69184 0.13562076 0.5553644 -0.4976739 0.3816517 -0.056393057 -0.24042138 -0.9244764 0.11476438 0.45132604 -0.2549403 0.13859937 0.1693025 -0.36799428 -0.14746359 0.45236078 0.11345573 -0.3947125 0.44120213 0.78518844 -0.028753148 -0.40800747 -0.49864897 0.15416078 -0.15902272 0.56633425 -0.03737886 0.085721426 -0.08489411 0.64872545 -0.22759967 0.048927862 -0.31064287 -0.21928018 -0.40112692 -0.3508577 0.12432857 -0.29127166 -0.07102549 -0.41029176 0.03495363 -0.4906114 -0.99692523 0.10696455 0.29964215 -0.16864578 -0.40335098 0.19640365 -0.7776139 -1.042105 -0.2902789 0.37953347 -0.43202698 0.21249026 -0.07669902 -0.07202004 -0.20437184 -0.6178394 0.11893698 -0.05503537 -0.73384225 1.3423903 0.0200716 -0.63436615 0.08996591 -0.65551674 -0.24524601 0.49173906 0.6298701 0.3003279
seafood -0.15342341 -0.40469766 -0.26819822 0.5624463 0.50772804 0.4406169 -0.35351226 -0.6312707 -0.4867696 0.44552144 0.38875392 -0.040549856 -0.53424877 0.2577805 -0.51030236 0.6027527 -0.31877026 -0.05844035 -0.040467877 0.69925624 -0.34564674 -0.18563695 0.20824039 -0.06857609 0.5610074 0.41081208 -0.03681197 -0.40556943 -0.46561685 -0.21883999 -0.38059217 -0.0753677 0.20016359 -0.27801737 0.68762344 0.46261123 0.7859896 -0.10946831 0.12612075 0.33110306 0.44850832 0.1813628 0.591864 0.20086974 -0.25329474 -0.038118318 0.088669054 -0.18239953 0.23932172 0.022560982 -0.40742782 0.08121348 -0.8257348 0.3035354 0.23008665 0.5801159 -0.5847458 -0.0114535475 0.18435162 0.8341394 0.19026123 0.2633889 -0.101084575 -0.022014895 -0.9061212 0.070914075 -0.45705658 -0.48488602 -0.10124274 -0.5016867 -0.737378 -0.23651782 -0.6857519 -0.3741212 -0.51666665 0.49468216 -0.24222004 0.09097145 -0.63907266 -0.6833235 -0.08754229 -0.695953 0.5563213 0.36050934 0.6372992 -0.777618 -0.94863963 -0.2717036 0.02844015 -0.6460226 -0.64528537 0.3060672 -0.36125812 -0.5314782 -0.5297219 -0.64565736 0.06384818 0.2933711 -0.045217663 0.33994243
caper -0.31717318 0.43221518 -0.15829127 0.06215056 0.073430695 0.53454906 -0.0709993 0.1658533 -0.99909866 -0.17759542 -0.15743364 0.5719887 -0.25841117 0.14576 -0.3327327 -0.022573393 -0.38898313 -0.8166162 -0.3088688 -0.39292386 0.08915167 0.13487194 0.22689086 -0.5174152 0.29164472 -0.29626924 -0.1667307 -0.68116057 -0.42792097 -0.114985116 -0.42706877 -0.33181486 -0.014113608 0.053681597 0.99818456 -0.34013668 -0.10021491 -0.67587954 -0.20353803 0.37283334 0.11492207 -0.29798397 0.5906271 -0.012934702 -0.26276463 -0.41245845 0.14337945 0.31262833 1.0550406 -0.37372717 -0.58009905 -0.43990767 -0.12889001 0.4311886 -0.20774359 -0.051431067 -0.20908603 0.23177083 0.024257254 0.5932788 0.12913795 0.23845087 -0.40345126 0.5275137 -0.67703074 -0.27848712 -0.27407074 -0.5254024 0.19189322 -0.21238394 -0.7700931 -0.16180637 -0.24702874 -0.35415584 -0.32232055 -0.4325102 -0.39326397 0.13109332 -0.42764786 -0.53928906 -0.18396762 0.1257742 0.14121486 0.20198104 -0.0531537 -0.3861424 -0.9976873 -0.6811552 0.11771873 -0.24870923 -0.23574015 -0.22042212 0.46896994 -0.22554258 0.2676077 -0.7345965 0.14077215 0.31668648 0.36665636 -0.3001043
mare -0.03678608 -0.16939735 -0.5377893 0.68135667 0.61284333 1.0857409 -0.2629833 -0.3979272 -0.37463024 0.045411013 0.5035627 -0.46414435 -0.3384633 -0.12830956 0.14128445 0.024354974 -0.13308617 0.020825634 -0.20379753 0.26519224 -0.028733255 -0.38825098 1.2304045 -0.23117405 0.09904171 0.443472 0.0079235025 -0.44539073 -1.0763739 0.15010068 -1.0454838 0.43612593 0.7548549 -0.9049975 0.5979338 0.4833375 0.8997332 0.05911966 0.26364237 0.13555962 0.81790304 -0.25709236 0.86431587 -0.051157486 0.078627 0.029652502 0.4250775 0.39984652 0.07418216 0.36040318 -0.7389155 0.17976263 -0.18377222 0.46751326 0.27407527 0.65977186 -0.6596162 -0.07272254 0.40868542 1.3631961 -0.033644304 -0.3365054 -0.5758524 0.35927635 -0.25592488 0.11418215 -0.8221878 -0.98390925 0.084336184 -0.7994777 -0.783459 -0.31890395 -0.64040947 -0.0114153195 -0.2914114 0.46134943 -0.3787134 -0.01628267 -0.7681759 -0.333419 0.50550085 0.056138754 -0.28361192 0.3896116 0.82714915 -0.7069788 -0.45312956 0.30813766 0.20370579 -0.47509927 -0.6625738 -0.08499389 -0.48989695 -0.6272916 -0.5799352 -0.05188358 -0.19588274 0.0023922385 -0.6009628 0.9023627
frutti -0.33175078 0.18010177 -0.595475 0.73783815 0.22076763 0.91658473 -0.1801172 -0.1980071 0.004052486 0.24350384 0.2207868 0.042103052 -0.38896197 -0.232807 -0.079874314 0.60062176 -0.29901987 0.10022492 0.43588102 0.29857084 0.17323707 0.11017075 0.929352 0.3704061 0.6579054 -0.08909846 -0.08868991 -0.12024138 -0.8397813 -0.25863087 -0.94830835 0.6382701 0.38797438 -0.634394 0.69789684 0.4938001 0.9800148 0.24991143 0.32261565 0.0070976177 0.5731167 0.13163933 0.41526347 0.14201748 0.2612319 0.022979151 1.0023773 -0.25644186 -0.053930674 -0.02988067 -0.26295406 -0.033968356 -0.15482552 0.5169784 0.05983561 0.22994678 -0.88222426 -0.22375998 0.49621403 0.8214512 -0.10498501 -0.22448261 -0.3922475 0.35773876 -0.56485134 0.052823495 -0.7595314 -0.90945023 -0.045882326 -0.49956486 -0.1080263 0.16022643 -0.71179616 0.046151306 -0.72486997 0.20357999 -0.5247547 -0.27802718 -0.13892046 -0.58541286 0.027926687 -0.13683268 -0.0672643 0.34164444 0.38693708 -0.32625875 -0.4534661 -0.22318067 -0.29883474 -0.69997805 -0.58430356 -0.08683254 -0.84058034 -0.34004378 -0.35728726 0.36035907 -0.20023048 0.25569624 -0.03048598 0.90236485
di -0.344655 -0.40437534 -0.27495646 0.8817846 0.22890624 0.9554659 -0.07944299 -0.17718725 -0.50202566 0.22782236 0.49430507 -0.48864046 0.42484376 0.27141455 -0.37252536 0.3743438 -0.09400767 0.66262597 0.20038334 0.11862666 0.10997198 -0.3524526 0.73363936 0.44172096 0.5181822 0.25781584 -0.1532746 -0.15972131 -0.8890076 0.1671385 -1.1244042 0.22357418 0.6272635 -0.6219279 0.51856077 0.60963935 0.80842966 0.09077519 0.29045323 0.060573734 0.6433686 0.36431026 0.39528456 0.3292838 0.1688824 0.49062702 0.49878755 -0.015331291 0.12905082 0.7574447 -0.42637068 -0.3290738 -0.43420935 0.2805193 0.17755532 0.12294519 -0.33093876 0.38223264 0.19851646 1.1336833 0.263996 0.14547949 -0.07149488 0.6968735 -0.7814078 -0.08367855 -0.7025507 -0.72712016 -0.2589265 -0.38970575 -0.5677579 -0.63949174 -0.6835176 0.18874754 -0.8739696 0.42528388 -0.13327086 0.16925493 -0.39172938 -0.17909211 0.17549478 -0.022018176 -0.55690336 0.059799325 0.6120108 -0.88095915 -0.74976903 -0.22637852 -0.033016525 -0.36344016 -0.41956326 -0.18977104 -0.8358608 -0.7930433 -0.49721813 0.3023294 0.2153101 0.1497857 -0.3006439 0.3444268
parmense 0.15234134 -0.64108104 -0.596473 0.6187941 0.0016079322 0.64999306 -0.084936656 0.0038403939 0.0062679946 -0.24926543 0.33836472 -0.26597047 -0.14659496 -0.37293416 -0.027615888 -0.41985705 0.55755293 -0.26465076 0.4571834 -0.41858283 0.37487337 -0.2176142 0.7290232 0.19422382 0.33413497 -0.29367417 -0.017739443 0.30616346 -0.8171392 -0.16583271 -0.81650066 0.20725098 0.40855736 -0.2667292 0.42814136 -0.22841492 0.32701573 -0.3638973 0.1560444 0.37941048 0.5510837 0.11136635 0.083102815 -0.3362215 0.22245821 0.28993878 0.0020896203 0.26096508 0.5788261 0.36377552 0.085182294 -0.23325063 0.12542555 -0.4278866 0.11834838 0.049626976 -0.153047 0.02219764 0.39164308 1.2688884 -0.38210934 0.6254872 -0.36549863 0.3673129 0.44483295 -0.0040592193 -0.3476075 -0.55870074 -0.14904106 -0.94062024 -0.28917193 -0.15963797 -0.054132633 -0.38513973 0.08787239 0.09702095 0.055335436 -0.6538112 0.2608231 -0.33147123 0.035815213 0.16802193 -0.34352788 -0.20850143 -0.42513722 -0.5419372 -0.09440247 -0.5672028 0.025780657 -0.44753742 -0.38440296 0.71265286 -0.5616339 -0.63615465 0.21937603 -0.050898317 0.18201905 -0.478452 0.071950816 0.15449704
sloppygiuseppe 0.10458783 -0.54840755 -0.024051659 0.8747065 -0.056740567 0.6043829 -0.3264801 0.14255472 -0.30073115 -0.17811532 -0.30437645 0.22927226 0.33365136 0.12907605 -0.14973718 0.5298787 0.2534991 0.05127437 0.37627316 -0.48373747 0.4004072 0.13836488 0.45806888 0.354377 0.014906756 0.43103006 -0.025727067 0.17793424 -0.8561518 0.21456133 -0.3063052 0.5142335 0.77753174 -0.16322635 0.3485807 -0.3576556 -0.07243104 0.4682843 0.042667083 0.5179767 0.27287048 0.29638627 1.0114794 0.065214545 0.09467131 -0.3755885 0.7614511 0.62232345 0.31855923 -0.021702278 -0.19283098 -0.60303503 -0.055074845 0.16955897 0.67222184 0.012191082 -0.18370128 0.3502223 0.114607975 0.59077483 -0.054784063 -0.11496288 0.15133366 0.32036728 -0.41075155 -0.21124834 -0.31841078 -0.8675733 -0.222563 -0.20472547 0.033996847 0.103873454 0.15328282 -0.62460744 0.20029487 -0.018552508 0.059977904 0.032319766 -0.34573567 -0.49881753 -0.09802287 0.46191293 -0.4483435 0.113658175 -0.12064262 0.051692456 -0.30402154 -1.0230297 -0.40379202 -0.40540034 -0.48735538 0.7741969 -0.4310321 -0.27723202 0.39687055 0.30219004 -0.27546138 0.21294594 -0.30037585 0.26509064
green -0.29747564 -0.5507975 -0.20775199 0.7456734 0.4132073 0.057566047 -0.320734 -0.46548235 -0.34385327 -0.25304487 -0.36247087 -0.3888604 0.6969731 -0.17996857 -0.41316044 0.5015915 0.0063681006 -0.32593572 0.41696241 -0.025118498 0.35188138 0.6341532 0.6812098 0.14187491 0.05077232 -0.22577406 -0.050874144 0.06185679 -0.5775452 0.43776572 -0.09089927 0.3617798 0.5702995 -0.3236456 0.48746762 0.18217382 0.50861156 0.45211732 -0.36223456 0.3166041 0.025544843 -0.11903154 0.86961204 -0.075622916 -0.24793279 -0.26783922 0.47050843 0.7710529 0.5434317 -0.56821483 0.21928184 -0.46546263 -0.2410726 0.30902064 0.6448216 -0.09155263 -0.2611704 0.22794606 0.23721397 0.51777244 0.5938482 -0.13001049 -0.05543081 0.24340715 -0.7122197 -0.14774477 0.1716839 -1.0431123 -0.59014976 0.2558557 -0.072282 0.18405512 -0.6537293 -0.38909858 0.28311187 -0.41544262 0.3633548 0.28128183 -0.12876062 -0.6847952 -0.07093885 -0.1142584 -0.42482334 0.22246575 -0.26857036 -0.09201014 -1.1735564 -1.0537907 -0.19387533 -0.3046331 -0.28835246 0.25498256 -0.12876977 -0.47043836 -0.17968638 0.13277581 0.38085553 0.14517415 -0.5031537 0.11445353
